57 10
<unk> 1.05020313113 -0.41273487532 -1.50778809396 0.62937428391 0.862161975425 1.04530419834 -0.478812090575 0.996163557101 -0.786898531287 0.124407163818
you 0.787655007287 -0.278250445808 -0.874036351629 0.321614202299 0.493863893566 0.681998471536 -0.247113651997 0.625902448639 -0.512599521451 0.141796089872
to 0.662773828186 -0.17022792615 -0.781107698155 0.262989980302 0.470572894323 0.563047803361 -0.21468984541 0.48437842707 -0.455824897284 0.0395706343767
the 0.681547480421 -0.183973557142 -0.814532408527 0.327684570588 0.518399289256 0.634993546309 -0.301234689097 0.544731643863 -0.448972130251 0.0467343244361
<bol> 0.15111018213 -0.0164929740417 -0.181999231955 0.0146831644161 0.12511457034 0.097141489622 -0.0287793731616 0.0809983865154 -0.102493827145 -0.0175614084463
<eol> 0.242737790724 -0.0443783892561 -0.281605124191 0.157058491065 0.182638765433 0.233140342078 -0.100840806798 0.217164140934 -0.143488516901 0.0742361591918
a 0.310959151633 -0.0979908545348 -0.34560781615 0.100282690173 0.222242782079 0.257369702166 -0.065828267986 0.205738869952 -0.151137849449 0.0776348808308
and 0.382669019876 -0.116752975209 -0.430514095996 0.144411110516 0.217684124366 0.268019638177 -0.136018726859 0.298598561417 -0.220888719465 0.0801489289245
who 0.538621128633 -0.119430260593 -0.50227448327 0.165865688109 0.338856992204 0.380863453094 -0.151783134311 0.380355569854 -0.327563132354 0.0268261515948
of 0.449250222548 -0.112158342406 -0.445234141617 0.180432102796 0.235683483702 0.383710604261 -0.141013635208 0.375398420162 -0.302272147099 0.0594200643164
those 0.442680699664 -0.105738067002 -0.448910651799 0.149385468241 0.245038488107 0.346232860261 -0.206216180001 0.341810171561 -0.298351537893 0.0469280988206
He 0.330256042759 -0.126320861793 -0.426387071543 0.140221399162 0.265625351627 0.243040529866 -0.0938130349669 0.29048968039 -0.247003373902 0.0640382255461
have 0.397412261953 -0.0883419653716 -0.440664347907 0.173972171301 0.272594310447 0.355892046339 -0.16783319523 0.244708913103 -0.230171929418 0.0870072242769
make 0.424603136557 -0.11192441817 -0.42502576099 0.164744440812 0.236822681064 0.338291395149 -0.152567156015 0.262578463564 -0.284746066345 0.00927940969329
that 0.346755973009 -0.142573991734 -0.393126242515 0.151761385207 0.26750862864 0.341823256963 -0.167170207098 0.305596257689 -0.203199921232 0.0332075357051
want 0.241050143119 -0.0238654849927 -0.264030047096 0.130758780276 0.183141349264 0.164247227544 -0.0709128937033 0.114049116926 -0.102998155735 -0.0255233690133
with 0.124924009374 -0.0516378850592 -0.137601642796 0.0836624040267 0.105245752503 0.135240473505 -0.0699244174284 0.098784606939 -0.0902622088173 0.012279401426
in 0.122159682675 -0.0041664427837 -0.141184685986 0.102453816259 0.054616248612 0.0795627892569 -0.0272959270266 0.0902219240591 -0.05106843941 0.0244441657496
life 0.175059618297 -0.0527188893021 -0.231463175514 0.117843830646 0.12332119889 0.137480136223 -0.0850239653102 0.122000602797 -0.129153082728 0.0565931629296
when 0.206559996951 -0.0430786122405 -0.193694917145 0.13413134431 0.150628310284 0.130400044353 -0.0343556542004 0.168116138081 -0.0909023095572 0.008341945072
your 0.104779367818 -0.0574440319746 -0.200531671471 0.0888682049844 0.146146632163 0.137146206982 -0.092285099893 0.139202465596 -0.128655051216 0.0126303679387
for 0.163148887639 -0.0509687751413 -0.213018739885 0.0625182795255 0.0748911859502 0.128993273125 -0.108128980845 0.170474701632 -0.0725128666195 0.0431006447876
one 0.270564828046 -0.0374589057628 -0.24704826893 0.158719730094 0.1144209878 0.16164456191 -0.113796526584 0.212516540995 -0.155183038799 0.0451933562781
on 0.148732940786 -0.023526287866 -0.189414011516 0.102810393537 0.116741759346 0.165266112312 -0.0320014569995 0.089018916771 -0.140178889479 -0.0285271775128
are 0.127308651608 -0.0201064034379 -0.151049492215 0.0523548165634 0.0599422429863 0.0518791489625 -0.0859098980189 0.0625386062201 -0.0573234399519 0.0344940556494
just 0.235953897181 -0.0233578685641 -0.26094624155 0.101673587395 0.173645822316 0.136707216502 -0.103091945069 0.205000310831 -0.0876898900773 0.00279005051557
them 0.131454553618 0.0170211956167 -0.110219803659 0.0677971164565 0.0487189680894 0.0557662319319 -0.0569119700831 0.0536984523391 -0.0304582003101 -0.0255547307169
people 0.181354424726 -0.076294752846 -0.213404281192 0.0984190281808 0.152782412076 0.2176936883 -0.0598318836786 0.156678540424 -0.171203228015 0.053444701826
their 0.196398338909 -0.0251926552227 -0.203302818965 0.0578348816172 0.110639543345 0.0943662438837 -0.0582704484305 0.159223966438 -0.12604413109 -0.022376213191
will 0.198976940666 -0.104925039317 -0.26500659683 0.111061229779 0.186416469774 0.175098479396 -0.0368418818032 0.138822441429 -0.15142957606 0.00333768431729
go 0.185735176137 -0.046330760444 -0.188637555927 0.0871375902579 0.139076848646 0.171308571605 -0.0938140354882 0.0987235790461 -0.0928023504085 0.0144851604224
is 0.132389010455 -0.0540080606296 -0.242994128654 0.0950266396769 0.085575341604 0.135587713145 -0.0600491513428 0.0924145795676 -0.0667910389072 -0.0203144997495
adds 0.17832778599 -0.0133405240013 -0.180990853563 0.112647280222 0.0490374627764 0.10609476841 -0.03275963685 0.10135680874 -0.0724987582652 0.00408778084696
James 0.212482824095 -0.0929322380831 -0.275653867632 0.114131377549 0.180556817817 0.222984673241 -0.111016545355 0.184487569452 -0.174103298161 0.0359419754268
snowman 0.168679164809 -0.0230170087744 -0.189559031135 0.102970063342 0.102210325736 0.176097988659 -0.0825435860414 0.131917740424 -0.0670891135363 0.0428086579108
miss 0.157640381374 -0.0651347589052 -0.160023400695 0.0758549010686 0.125559072561 0.0987506184916 -0.0040592735218 0.109462649517 -0.122545541382 0.0508904298098
so 0.0421992034676 0.0166931227587 -0.0606631776751 -0.0193046030252 0.0850082912711 0.049317997378 -0.0422446197795 0.0748653239783 -0.0223813044075 0.0351276089801
what 0.100502125364 -0.000794961513308 -0.0437877531045 0.0439392690472 0.0667097732076 0.00898146151963 0.0188696865276 0.0411870806538 -0.0310592489233 0.00105416173808
only 0.181799203425 -0.079666498576 -0.218142764843 0.0569436449103 0.0807504870812 0.160866672182 -0.0106646564382 0.0910168446845 -0.13532385724 -0.0121758274757
things 0.10452977747 0.00117159963525 -0.0785788844008 0.0786051215903 0.0384502142853 0.107898861424 -0.0701503724086 0.0843830485587 -0.0346642758082 0.00150013587524
hurts 0.106474295815 -0.0236464365898 -0.132297036754 0.0378921867602 0.0613975559881 0.0715840582409 -0.0635552039763 0.149748336486 -0.129711129339 0.0270514036267
don’t 0.183333073175 -0.0776821786575 -0.203049434553 0.0416415100443 0.136007654423 0.115811721467 -0.0459663210065 0.150658645777 -0.0766081760687 -0.0102765940486
appreciate 0.165978071065 -0.0071278332589 -0.185226645312 0.107337074676 0.0751200051179 0.196532730503 -0.0728867559338 0.107144945687 -0.159613568061 -0.0101579027675
touched 0.0258913223548 -0.0361572257369 -0.0711568854231 0.0316405987959 0.0923294681668 0.0584738250227 -0.0539971719269 0.0613493639353 -0.0565688741274 -0.0160953233573
let 0.0722079149653 0.0140419356149 -0.08748202554 0.0140444296969 0.054297384377 0.0469148149501 -0.0499374655219 0.0746617085155 -0.0844183337504 0.0278199719286
were 0.0642464403126 -0.0516209267232 -0.0672946673124 0.0584469323584 0.0243033608734 0.0461057702505 -0.0214494897615 0.0536694314099 -0.0782197554496 -0.00283564515571
everyone 0.0539163175238 -8.13773848072e-05 -0.0830973156522 0.00439562721733 0.0533555499696 0.103250039154 -0.0780012027672 0.055952912285 -0.0165346702111 0.0562639336483
around 0.065761035065 -0.051888998641 -0.12687434713 0.0488305220958 0.0456914783948 0.113453217315 -0.0783976433663 0.113224814805 -0.0282723961205 0.0305666068159
this 0.147411363026 -0.0808695119719 -0.126283951441 0.0397648305395 0.102947116542 0.0541217909602 -0.068202641701 0.124273810585 -0.0579289405257 0.0340628864841
really 0.166167965872 -0.0708113354513 -0.134767082173 0.0758424809802 0.0711174402081 0.12702798956 -0.0374464754431 0.130138825748 -0.0649822864895 -0.0279076417855
out 0.174692034013 -0.0132389244994 -0.0993025735109 0.0811020014818 0.0859821421753 0.137253123894 -0.0780069922217 0.131953105283 -0.105361361542 0.0164452614271
It's 0.0576195698149 -0.0253097315683 -0.00587071136602 0.026209137956 0.0135776765357 -0.0173905861037 -0.00132223620597 0.0720070937797 -0.0103635698125 -0.0387379072887
runs 0.119860000222 -0.0200109123544 -0.160017754686 0.0141785943416 0.12285357422 0.149773952303 -0.063859060703 0.12160777187 -0.0942349524369 0.0419179729339
big 0.0614940716853 -0.03395406389 -0.0582036954181 0.00181101856925 0.0345488740442 0.107233043199 -0.0645614048395 0.0961659607639 -0.0305020435693 -0.00849504820497
What 0.183542940388 -0.014733867496 -0.130966435364 0.0368557420309 0.0771646165181 0.132985744462 -0.048940293816 0.15101804254 -0.0495198349418 -0.0189539904975
The 0.152378454452 -0.0611139594994 -0.161849107957 0.0377798836388 0.111555311576 0.117041124285 -0.0250175268046 0.157581416066 -0.151481666628 0.028154402422
up, 0.170055487314 -0.0572195256943 -0.20548742486 0.112077535588 0.0896388991087 0.124862781557 -0.107009469387 0.189865702921 -0.142261556615 -0.000189261695961
