242 10
you -0.0511009532388 0.00923815211484 -0.0356291632301 0.0566072142054 0.0537357948166 -0.00653941572767 0.0358292940002 0.0135259710853 -0.021112360928 0.0368966410164
to 0.0036142210088 -0.0292985734547 -0.0437300929788 0.0494266278148 0.0274263535355 -0.0317809493681 -0.00969932096887 -0.00566295313309 -0.0245002041443 -0.00244971119626
the -0.0498371949617 0.0352805949251 -0.0693348328778 0.0157703237263 0.0726671982156 -0.0426035360599 -0.0262253194603 -0.0475494659274 0.0390836904314 -0.00816082595799
<bol> -0.0403898512921 0.00857409658647 -0.00567184356934 0.0403404567442 0.0481643778221 0.00124153238145 -0.0320051085723 0.00806593399518 0.0251653301284 -0.00572614851001
<eol> -0.0016839435937 -0.00218277149181 -0.0366197177742 0.0499704573537 -0.0105635063061 -0.0133059914064 -0.0204777129849 -0.0137485824489 -0.0139429798909 0.0428414734954
a 0.0242519696812 0.0355445426874 0.0116106229438 -0.0338908922603 0.0620040237069 -0.0113357299521 0.006886316704 -0.00697169834539 0.00880440715193 0.0104613133186
and -0.0488220616922 0.042000114994 -0.0230659509225 0.0241399649177 0.0581949554522 -0.0077149663484 -0.0427395838265 -0.0327145224553 0.00127253507746 0.0172106937478
who 0.01651137317 -0.000852612326697 0.0397488370446 -0.0391492512856 0.00470165141187 -0.0282412711483 0.0447439205898 -0.0216964124909 0.0104583627476 -0.04848556493
of 0.0387426015339 -0.00624815910539 0.0259769974317 -0.023291054209 0.0251602094257 0.00026704363533 -0.0301813667599 -0.00308619714549 -0.0432797396429 -0.0401325327845
those 0.0343327980041 -0.0272693292607 -0.0536537081044 0.0313972763835 -0.0184709437323 -0.0397599411469 -0.00602296141174 -0.0151580928476 0.035323533319 0.0267394157089
He 0.00230497698509 -0.0169192513345 0.0107771091469 0.0348793507041 -0.0268465402792 0.0074734719532 -0.0306273868955 0.0282655553128 0.0425496876763 -0.0165538232844
have 0.00835055736353 0.00658063354534 -0.0173494185861 0.00246977720619 -0.00292298666551 0.0384378410628 0.035121091084 -0.0242729841266 -0.0493919584385 0.00364099418424
make 0.00953423596955 -0.0391413145353 -0.0367542242278 -0.0449104361829 0.0375227138037 0.0380508975395 -0.00319372501689 0.0458189407367 0.0382472436935 0.0133353074285
that -0.00182357047678 -0.0146980062826 0.0159591918645 0.0124458554786 0.0392319369022 -0.033672596675 0.027492834501 0.00228247961687 0.0213501587082 0.00768829972504
want -0.0226372646098 0.0410401711351 0.0121468371966 0.0270283882349 0.0358286540232 0.000747979221079 -0.0474833032525 0.0244371323005 0.000530805857443 -0.030284796366
with 0.0172853413977 0.00550071944496 0.0394995354827 0.0562490977717 0.0297285862788 -0.0500312873459 0.00128214177633 -0.0102862705324 0.0201169443499 0.0101633607254
in 0.0477153381868 0.00971562338854 0.00728383721197 -0.0281935808933 -0.0297119152061 -0.00364113741934 -0.012220332169 0.00564396597393 -0.0144539705582 -0.0358899645173
life -0.0423307893926 0.0154988797609 0.0338443812687 0.0342750970332 0.0329344212913 -0.0330811721124 -0.0155910519903 0.040458594231 -0.0162670720529 -0.019353876539
when -0.0407048705113 0.0285837343188 0.0272214160328 0.0102251297479 -0.00757830565919 0.0466200413289 0.0171934959186 -0.0464248219272 -0.0349307333128 -0.0307724413586
your 0.0466433840613 -0.01826249128 -0.0112979565039 -0.0103928784789 -0.00312770215333 0.0130412659422 -0.0433677374494 -0.026393669855 0.00951092449397 0.00142236167092
for 0.0154355734107 -0.0451362873569 -0.0285267533656 -0.00726993394326 0.0214299691669 -0.0433261897355 -0.0302958197824 0.0130908703394 -0.0299161407196 0.0495229850767
one 0.0466735190183 -0.0340258429785 0.00403199255078 -0.0175115223057 -0.0120475239699 -0.00368957794907 -0.020061923371 0.0378449570271 -0.0255064372194 -0.00277946190706
on -0.0152211284105 0.011384376584 -0.0457315428776 -0.00440643956912 0.0323227263911 -0.0209532240474 0.00720022328599 -0.00824636930353 -0.0241518436905 -0.0417687372154
are 0.00691011782109 -0.0505592436284 0.0334639801699 0.0518981620481 -0.0283361718443 0.0109784292112 0.0200164413726 -0.00924704183984 -0.0403883269997 0.0323057586468
just -0.00371665809908 -0.0448997279041 0.00635549153208 0.00757140535668 0.0156096803072 0.0131271119458 0.0275959840211 0.038993716034 0.0355830627178 0.00100238032641
them 0.00673471320149 0.0247298901833 -0.026229123482 0.0229335689587 0.0306038979507 -0.0451419191005 0.0252974576334 0.0297489194853 0.0453940781649 0.03888706942
people 0.0291235413972 0.0297472969902 -0.0486036491015 -0.0469719339156 -0.0184653425443 -0.0413185278859 0.00808756746439 -0.0280359254942 -0.0378168017207 -0.0228117389815
their 0.0316130998826 -0.0246925528606 -0.0143663397197 0.0280717306592 0.0098745024452 0.0429945636987 -0.0195912779585 -0.0393501943432 -0.02803389767 -0.0183814212753
will -0.0481744294388 0.0118944763338 0.0164516533233 0.0277413913098 -0.0113853906738 0.036367930165 -0.0195205729202 -0.0152704234719 0.0385646266512 0.0463894117611
go -0.0389158302671 -0.038706040821 0.0063186104501 -0.0279483818229 0.00407337907868 1.51134632114e-05 0.0181925769165 -0.016752759098 0.00655303022757 -0.014167241657
is -0.0168957970918 -0.00852238372516 0.0371747239498 0.0308490507365 0.0376186401069 0.0321533408049 -0.0238949866961 -0.0238755056123 0.0421217362316 0.0385620947624
adds 0.0260843903394 -0.0136334108679 0.0196836424221 -0.0171361413332 -0.0100431298841 -0.000363005799066 0.0032766563855 0.0309603122753 -0.00335754555249 -0.0148795598292
James 0.0356606494298 0.0183094706224 0.0132445382015 -0.000774884758897 -0.0133257019101 -0.0139470216412 0.00860886966883 0.0152721777688 -0.0393290174584 0.0367375137321
snowman -0.0162916609952 0.0170677474234 0.0404512318393 -0.0408005118097 -0.00203711344072 -0.0142646799184 0.0111649387498 -0.0371355411954 -0.00807667690252 0.0235962018051
miss 0.0179037146692 0.045116053484 -0.022786774734 -0.0458808636513 0.0239990573622 -0.0219478055215 -0.00981871988241 -0.0247987731977 -0.0195941119652 -0.0119574797761
so -0.0460654673319 -0.0243761440284 0.0105810217714 0.00541401188415 0.0104791492332 -0.0502498511828 -0.0160963536293 0.0224575172119 0.0454580242424 0.0116298115348
what 0.0456416472457 -0.0414736732223 0.00762847210586 0.0374213100977 0.0236138639449 -0.0146871408687 0.0193461634598 0.0494508211276 -0.0397868248926 0.0449933583538
only -0.0463877874192 -0.00166629142479 0.00150561458023 -0.000933403340972 -0.0373310327027 -0.0416181499011 0.0327172485969 0.0457808952396 0.0415718056132 -0.0195176649732
things -0.0162627770395 0.0143028215562 -0.00421863785143 0.00507123450037 0.0022788715352 0.0145806380953 -0.02375763626 0.0327124969169 -0.0389999004262 -0.0226319574669
hurts 0.0304196294361 0.0418445342653 -0.0417678438001 0.0446291789632 -0.0194473969226 -0.0392910571805 -0.0387767214255 -0.0317542002221 -0.0460394794137 0.0479831878346
don’t -0.0265840826955 -0.00115684232024 0.0257732058495 0.0402701206172 0.00804171033042 -0.00462489681306 0.0183104132194 0.00359094130618 -0.00917690323283 -0.0376842801894
appreciate -0.0102668719326 -0.0105513863931 -0.0396944113997 -0.0407219468973 -0.0130247066688 -0.0444614998818 -0.0332535667467 0.0325336250524 -0.0338344838389 -0.0305385142376
touched -0.0194724331516 -0.0173488352435 -0.0493605717423 -0.0115602011389 0.0397446945423 -0.021244560361 -0.0449719368059 0.0108541808285 -0.026969115296 0.047992254428
let -0.026729913097 -0.00802243043751 -0.0490985069534 -0.0209555713975 -0.00867812227013 -0.0377647789127 -0.0343299183605 0.00736296276447 0.04217238221 0.00338130466942
were -0.0116199508052 -0.0135823990732 -0.03112885928 -0.0138198617147 -0.00213684517644 0.0238026359123 -0.0120368850403 -0.0359277442972 0.00936530160663 0.0363787352562
everyone -0.0400707174184 0.0237422043381 -0.0169074052395 -0.0476376809924 0.0109358661724 -0.00342114000865 -0.0370198546884 0.00488020613608 -0.0313756042982 0.0125326901476
around -0.0208272743603 -0.0377091611707 0.0392216533142 -0.0246333284844 0.0414716191071 -0.000322110341173 -0.0410586222215 -0.00549739210713 0.026236529933 0.000646096608995
this 0.0219263496223 0.00570421647354 -0.0241285949814 -0.0319754158967 -0.02835772694 -0.0110743232858 -0.0210598357847 -0.0380159227939 0.0230746418986 -0.00883760743979
really -0.00231875369869 -0.0293186016691 -0.0446375997186 0.0287149586525 0.0163984876694 0.0189157226097 -0.0407681075075 -0.0486799732647 0.0348212357968 0.00608420675962
out 0.0191952646009 0.0200076324202 0.0354907716709 0.0346678382194 0.049159851419 0.0409789030505 -0.0061628025853 -0.0288326660637 0.0278183206877 -0.0311351363197
It's -0.0449472307997 -0.00894102902762 0.0390427279994 -0.0395598380143 -0.0212716693241 -0.0486734330964 0.0126041779042 -0.0117166773606 0.0453537307693 0.0306779064596
runs 0.0158728939947 0.0475717040335 0.0301906792114 0.0133834093902 0.0423752933806 -0.0500325064982 -0.0467660121244 0.033346329478 0.0447785160323 -0.0266437864641
big -0.0477285818791 -0.0397029005518 -0.0302372760582 0.00446126381152 -0.00502026057327 -0.0345642907992 -0.0271583926341 0.0143732166172 0.0114542176063 -0.0194295423022
What -0.050680835619 -0.0241544611477 -0.0204396739804 -0.00149210148281 0.00460043936251 -0.0526857508779 -0.03681001039 0.00940128762803 0.0221787961462 0.0342028922483
The 0.0142626882903 0.0211922895448 0.0388941389644 0.0492166119749 0.00266641629939 -0.0314357249176 0.0252461042517 -0.0235203974476 -0.0183318346676 -0.0394964022776
up, -0.0315982845038 0.0148609196057 0.0446928942885 -0.0413973475429 0.00137535289964 -0.0525922591665 -0.0471706426349 -0.012357261747 0.041253820405 0.0472176083058
《You -0.01127544463 -0.0288811674308 -0.00513062947812 0.0210258003808 0.00179970454603 0.0490855664526 0.0168272458014 -0.0480243066958 -0.030891804654 0.0425655595531
Have -0.0142508590047 -0.0360718834929 0.0037377600737 -0.01664371723 0.00817929622774 -0.0387616065141 0.0205566043758 0.011996839592 -0.0497176798306 0.0137818332399
Only -0.0202889421126 0.0115928721546 -0.0340103684293 -0.0141396970981 -0.0114370408583 -0.0466304823782 -0.0202199198586 -0.0271450253207 -0.0470189666781 0.00530851579351
One -0.00946696981885 -0.0178023099611 0.0450695801205 0.0414866661391 -0.0252591218297 0.0176517340755 -0.0315060820389 -0.0305733012291 -0.0445572560071 0.00919208397618
Life》 -0.0071532737418 0.0212563881729 -0.0399039085545 -0.00466520756887 -0.0492753223491 0.0026649111338 0.0237267868286 -0.0230970459145 -0.00539650174692 -0.0193029726066
　　There 0.0284434806453 -0.00723017754711 0.0145207442975 0.00278846312045 0.0431544145312 -0.0312595348375 0.039014452828 0.0141273007596 -0.0479739382464 0.0361874463854
moments 0.027635841999 -0.0439346074788 0.0417962113381 0.0234208822127 -0.0266905972231 0.0437807378038 -0.0041435433308 0.0269913880078 -0.0103748581498 0.0386579337188
someone 0.0475196217161 -0.0199947154706 -0.00570664867557 -0.00637508168523 -0.0391724238504 -0.0395022380749 -0.0382741522969 -0.00731842991191 0.0305522011242 -0.0249663739184
much -0.00877561201255 -0.0205552725293 -0.0242531725363 0.00559555459207 0.0184296025789 -0.0210475399678 0.044678065216 0.0234152760147 -0.0117302087842 -0.00570332934594
pick -0.048853929866 -0.0460670648915 -0.0391304855938 -0.0433182406332 -0.0197364600809 -0.00108217386087 -0.0273999246266 0.0345858968221 -0.0160028180623 -0.0493942141593
from -0.0149404514945 -0.0321980938122 -0.0478947474296 0.00248895127663 0.0213425306825 0.0366624037634 -0.0474099633562 0.00984643507022 -0.00953842746222 -0.0278412506468
dreams 0.0141648665919 0.029423111493 0.0355125451828 0.0341721954017 -0.0249797485989 -0.0423101281456 0.0142346263546 -0.0427538546683 -0.00844874191475 0.0137710770307
hug 0.0305559087416 0.0426990919832 -0.00355461866759 -0.0363557722037 -0.0263380693614 0.0399445227029 0.0176675643274 0.00419137216639 -0.00250921306336 -0.0421921444928
real! -0.0114419648223 -0.0205666461005 0.0416773466033 0.0466501795304 0.0143482667064 0.0288643990584 -0.0367698838746 -0.0143432069118 -0.032368545941 -0.0135524720002
Dream 0.0451040911375 -0.0466894404206 0.0102449978781 -0.0412259648679 -0.0301665443282 0.0185688520858 0.0270254215954 -0.00686284395753 -0.0415368014601 -0.00899209304346
dream;go -0.00533590924387 -0.0420484596858 -0.0113110125331 -0.000554602766064 -0.00698204769288 0.0267901780336 0.00564024476787 -0.0157984124379 -0.0314823005576 0.0286448956887
where 0.00786089309603 0.0125073107047 -0.00766900273805 -0.0323410124687 0.040610816702 0.00716899009089 -0.0190768196193 -0.0190832653993 0.0117850270597 0.0372828615506
go;be 0.020224154182 0.0413009949226 0.0161552313431 0.0417014263601 0.047655284015 -0.0240373813681 0.0118694757822 -0.0139011410804 -0.029497642442 0.0480564875134
be,because -0.0419293090314 0.0123398666972 -0.022797600029 -0.0448429866241 0.0150714845059 -0.0439792893339 0.0496444891504 0.0403827528137 -0.0163235118074 0.0177293472165
chance -0.0288945257267 0.0384237457773 0.0159199420013 0.0294325292169 0.0225440881463 -0.0260329631201 0.049025416892 0.0205180383699 -0.0248316776621 -0.0276059595494
do 0.00475703934297 0.0468679001888 0.0218704004758 0.042576786814 0.0208408388638 -0.0153336831984 0.0218672109886 -0.0291122736567 0.0233370349982 -0.0413088961202
all -0.0187400126299 0.0310459360126 0.016471343178 -0.0159341436893 -0.00606903554832 0.0125376400759 -0.0491601132707 -0.0228679856914 0.0338868512236 -0.00187088287246
do. -0.0402270676447 -0.00853070759127 0.0298636747688 0.0299049673051 0.0215544868602 0.0451420265899 0.0013453714963 0.00364348131231 -0.0253485507409 0.0335989817119
　　May 0.0298016062139 -0.0200490284055 0.0362965041434 0.000705662997464 -0.00674096380066 -0.0120047873649 0.0046624019193 -0.00264289965419 0.00618953732808 0.0172372866872
enough -0.0129714359109 -0.0316860417189 -0.0158070807913 0.0292303216786 -0.0255367228054 0.00809654733393 0.0469787699314 0.0179073004174 -0.0494254784083 -0.0194582726925
happiness -0.0423954073366 -0.0378866302046 0.046512580845 0.00847085284427 -0.0328675988822 0.031578709379 -0.0123477568945 0.0304708692051 0.0407266259138 0.0160224751609
sweet,enough 0.0182585300821 -0.0142785211887 -0.0393968763687 -0.0406681605752 0.0483056507717 -0.0354451724773 0.0409161741964 -0.0429595040471 0.0314270834339 -0.0253750075513
trials -0.0197705957956 -0.0235037367709 -0.0352884395135 0.0174969606869 0.0283642642105 0.048081232651 -0.0376434719886 -0.00977405430973 -0.0336536825499 0.00327769188872
strong,enough -0.0384012417644 -0.0365995875109 0.0285756240975 0.00829498764643 0.0135183777835 -0.000164421836138 -0.0496555759552 -0.0177386059495 0.0374070521022 0.0484203230524
sorrow -0.00918564030554 0.0421621531608 0.0367709757062 0.0493819596716 0.0351425393416 -0.0240920969936 0.0358144356084 -0.0396059891138 0.0453200249316 -0.0438124907855
keep 0.0468992934212 0.00991534532395 -0.0310297865467 -0.0407591749461 -0.0251772507558 -0.0404371939146 -0.0146625889432 0.00981072888208 0.0175811261028 0.0282451664888
human,enough 0.0364227369571 0.0228397738996 -0.0269336186973 0.040238777203 -0.0037327888909 -0.0122514747297 -0.0223759373992 0.0408640542067 -0.0203107293581 0.04598385425
hope -0.01012826214 0.0286541729545 0.0391119174253 0.0186738889143 0.0406205671931 0.0367517695366 -0.00771120364459 0.0168399062865 -0.0234691117625 -0.0309689086588
happy? -0.0118402437392 -0.0360594162027 0.0415727565556 0.044571783344 -0.0266269321228 0.0452141884582 0.0233136571266 -0.0146151852985 -0.0462955806776 0.0484559836889
Always 0.0472192368172 0.00310280688674 -0.0209271603591 -0.0183666510406 0.0499195677279 0.0247208819596 -0.0366928808024 0.0221031221706 -0.0411683821736 0.0190864269804
put -0.042444894135 0.0289891593356 0.00396782283949 0.0441508191003 -0.00828104994237 -0.0391560519353 0.0289858550033 -0.00721594757537 -0.0154704134696 -0.0346296963067
yourself -0.039518179815 -0.0242129300088 -0.0255627106694 -0.0127861848158 0.0253693376549 0.046192989801 0.0486197053858 0.0446747498229 -0.0497655390048 0.0211238004952
others’shoes.If -0.0436620781316 -0.0139454397784 -0.0273084312866 0.00726318008358 0.0460825848423 0.0148775051436 -0.0165123008411 -0.00794583880634 -0.0195726558196 0.0496598132002
feel 0.0329592320699 0.02108479199 -0.0114182217637 -0.0201526837364 -0.0467321774749 0.0357368988468 -0.029033164753 -0.00693275577801 0.000673320026453 -0.0458893620555
it 0.0272098531481 -0.0413142301603 -0.0502896530405 -0.0133994323909 -0.0315389229538 -0.0241089035517 -0.00762203004777 0.0184424974536 -0.0022499428305 -0.0414593936979
you,it -0.0504049525236 -0.0093297294538 -0.0138386491971 0.00526588731391 -0.0209248216865 -0.0223759135028 -0.00450959745718 -0.0334130288019 -0.0440279980996 0.00832372080699
probably 0.0114030904004 -0.0254006971348 -0.0318693027947 0.00100088915495 0.0287213617565 0.0102295679244 -0.0370001271321 0.0307836771068 -0.0225378369449 -0.00414099860637
other 0.0270577446675 -0.00875589640401 -0.0194297777608 -0.0276022842304 0.00714867984689 -0.0190017920454 -0.00975459284862 0.0318061582426 0.00174836545038 0.0199218126673
person, 0.0100301405103 -0.0474353387402 0.0442472497008 -0.00119348999133 -0.0166156267707 -0.0341875607199 0.0325888922492 -0.0106038218234 0.0246827440949 -0.0345446015893
too. -0.00752659300866 0.0154444252034 0.0302917257461 -0.00649188897807 0.0348991065541 0.0197598811888 -0.0421321530892 0.0372476189659 -0.00450566370135 -0.0486084149496
　　The -0.004870471524 0.0174698652321 -0.0408013357635 0.0303148729206 -0.043725772941 -0.0106608240378 -0.0164538856808 -0.0335589042033 0.0204817963318 -0.039990023821
happiest 0.0167466299801 -0.0272879475562 0.0177384393395 0.000358966286886 0.0301066114511 0.0311804123746 -0.0175991655218 0.0188646414799 0.0268102903843 0.0112007001182
necessarily 0.0351372660743 -0.0359639842399 0.00127620035025 -0.0262185779979 -0.0417984438923 -0.0328133343901 -0.0369166127533 0.0281877266875 0.0385901747709 0.0411072904444
best -0.0396942206564 -0.000503145519426 -0.0492655681482 0.047545990732 -0.0409798827021 0.015223381527 0.0308068956828 -0.0381111677353 0.00794424739674 -0.0208448540758
everything;they -0.0412950288922 -0.0379185467876 0.0169924214232 0.0425061531751 0.0497320092301 -0.0240726857556 0.0302590697958 0.0376342598895 -0.018213398084 -0.0490007511472
most -0.03085385313 0.0323720531303 -0.040207250527 0.0101124702833 0.0427166179753 -0.0286657697579 -0.0496715736578 -0.0368800438 0.0263917402314 0.013650065985
everything 0.0324231991471 -0.00503745969501 0.0374774517269 -0.0264514072595 -0.0143524632909 -0.0329312904866 -0.0247205855043 0.0484525144489 0.0312333522842 0.0412171846278
comes -0.0183293647738 -0.0103800983453 0.0413123342693 -0.0417239908903 0.00116105788892 -0.0359922434056 -0.0351342654071 -0.00208501871287 -0.0376964464526 0.0460112494905
along -0.00761738708619 0.0257383839716 0.00935990247424 -0.0455387299783 0.0146284180898 -0.0434267531881 -0.0345473603787 0.00920131858277 -0.0308390820171 0.0268919471255
way.Happiness -0.0292187334242 -0.0229336730901 0.0339907392519 -0.00621922947614 0.0302224429527 0.0215093532009 0.000271226146588 -0.0220042719293 0.0256167624773 -0.0191702912815
lies -0.00371941831851 -0.0133295111284 0.042207028607 -0.0148748126873 0.029371084472 -0.0239612911572 -0.0140099396278 0.0225623278344 -0.0323101759823 -0.0462698085834
cry,those -0.00322348021592 0.0385699267253 -0.0251989652684 -0.0158891983417 0.00725039797184 0.0298064565091 0.0305665838319 -0.0216331274503 0.0256434707392 -0.0262947338576
hurt, 0.00235427864885 -0.0155022156389 -0.0212078985305 0.026205452459 0.00181734796564 -0.0219099777521 -0.0378109222692 -0.0130725962881 0.000936477362235 -0.0388473626368
searched,and -0.047891606773 0.0153276195409 -0.0124092417902 -0.0441715623443 -0.029126517043 -0.00748900515467 0.0400197545236 0.0314581376213 0.0331435357423 0.0295543857708
tried,for 0.00597730393543 0.0390093555967 0.0144507570514 0.00916374498618 0.0359845208544 0.0323921418569 0.0441475852799 -0.0320075857761 -0.0492325401544 -0.0176044254275
they 0.00915155063185 -0.0416038282819 0.0365029480198 -0.00469549654408 0.044933024369 0.0333091268861 -0.000264585511889 -0.0369291558929 0.0106288802727 -0.0152641431642
can -0.0336034417885 0.00132302860633 0.0139805957637 -0.0296943606104 -0.0296304168176 -0.033750411926 -0.0481781745725 -0.0373139953676 0.00128908985964 0.0386565285343
importance -0.0325097735567 -0.0466003757781 -0.0141931042328 0.0251042585528 0.0354073168015 0.0437817609345 -0.0160899151612 -0.0107361781748 0.0405472966222 0.00151469515744
　　who 0.0228057460685 0.0319644185745 0.00821532392526 -0.0473611323069 0.0469164543592 0.0304771234148 0.0484744032576 0.0085886316213 0.0346874242861 -0.0339888025793
lives.Love -0.024203184947 -0.0456716460736 -0.023635514453 0.0422301129726 0.0211492495919 -0.0297409947472 0.0133330254844 -0.0121478795759 -0.032537334097 0.0381579160201
begins 0.0130459478126 -0.00769957767053 -0.0156892230924 0.0154438343426 -0.0417308138805 0.0280200962573 0.0331172601693 -0.0384372347504 0.00992725266212 0.0336489186016
smile,grows -0.00529286424472 0.0307961021023 -0.0322760735959 0.00626457466178 0.0423340978535 -0.0417280120339 -0.0231362883356 3.33058877996e-05 -0.0132753643184 -0.00257640279382
kiss 0.0406551164013 -0.0308389150367 -0.0043241308559 0.0467784549845 0.0192751063633 -0.0430520751648 -0.0164647852461 -0.00447269998927 0.0256216167631 0.0156618326591
ends 0.0233764963663 0.0199333082075 0.0181367980333 -0.0449192560918 -0.0308631349019 -0.031614619459 -0.0374477011698 -0.0013959544288 0.0452726704972 -0.00214742856021
tear.The 0.00566487914412 0.0157045681748 -0.049973609262 0.0158636403235 -0.0281980980209 0.00991057383331 0.0409480215818 -0.0256894098608 0.0481067699145 -0.029442845166
brightest 0.00680849343542 0.0352531409128 -0.00706596227865 0.0436446828508 -0.0420885189454 -0.00374823969162 -0.0265759962681 -0.0303651305161 0.0167599417794 0.00316167236055
future -0.00965252642871 0.0193926995113 0.0478273583969 -0.000742392162958 -0.00277885027101 0.032830046248 -0.0362936765394 0.0412633030757 0.0278684168013 0.0184756663191
always 0.000284771383177 0.00436546607555 -0.00442470835787 0.00985646940024 0.0327246015196 -0.042673403751 -0.0394639104293 -0.0428258102776 -0.000460474503696 -0.0325144662216
be 0.0289021138712 0.0464337512541 -0.0132878326452 -0.0449628756489 0.010010566006 0.00419772588418 -0.0470538211944 0.0470107862175 -0.00969341112593 0.0149256305516
based 0.0113347273472 -0.0228491880877 -0.0354937598464 0.00140291930891 0.000201718977108 0.0137468327095 0.00959889141958 0.0249278077701 -0.0321693081509 -0.0257658563598
forgotten -0.0245072388454 0.0148164352837 0.0146329271947 0.00451024121418 -0.0079913300427 -0.0494434169031 -0.0258392023246 -0.00748798395516 0.0282021932587 -0.0124760247449
past, -0.0165260991713 -0.036033231135 0.0481086955065 -0.00766622640094 0.00930472876557 0.0219580072009 0.0327503625747 0.0187784855019 -0.0271190446029 0.00783010498329
can’t -0.0430945757214 -0.0397698377441 -0.0237263156724 -0.035062630828 -0.0462843686807 0.01890113162 0.0139296343606 0.00623002831717 -0.011656580289 0.0059516820265
well 0.020981763728 0.0200388471353 -0.00757553397507 0.049238775129 -0.0359697942802 -0.0380767560001 0.0405339810163 0.0329372490462 -0.00988151498069 -0.0244728951188
lifeuntil 0.032434822954 0.00655768195507 -0.0493980973194 0.00924830552308 0.0099856869333 -0.0110253858387 0.028730191339 -0.0360610796873 -0.0501652724809 -0.0388250709788
past 0.0128950556261 0.0450602801193 0.00538695880426 -0.0489585931415 -0.0486929230017 -0.040110124751 0.0494785786474 0.0281609200851 -0.026073586102 -0.0256623314435
failures -0.00225070095306 -0.0458861364745 0.0383801895913 -0.00975866331719 -0.0311418170923 -0.0479689953917 -0.00345896352564 0.0427049658959 -0.0212818966261 0.0151448149876
heartaches. 0.0103924631742 0.0146927224795 -0.0485362533673 0.00461291058352 0.00748836927768 -0.012208319245 0.00221225491179 0.030613191293 -0.0380826644535 0.0458770019007
　　When 0.0215240936795 0.033747461262 0.0456412297765 0.0482691262154 0.0131896548379 0.049254681666 -0.0308506410789 -0.00105362166666 -0.0180081615747 0.00014357139485
born,you 0.0109909686008 0.00552240398826 -0.0106255483819 0.0260758411872 0.0132860958431 -0.0183085129797 -0.00111177169016 -0.0234509379671 -0.0313176583855 -0.00590807706293
crying -0.0208133689329 -0.00508317186494 -0.0408499852935 0.0240839152719 0.00748996693864 0.0129465184979 0.040785373331 0.00766275526818 0.0350948831262 -0.0213901615303
was 0.00280384101058 0.00778051729015 0.0101028000007 0.0105453138728 0.0234813983613 -0.0228929564268 -0.0256383954462 -0.0369834260985 -0.0470543972784 -0.0381622275771
smiling.Live -0.0415153026319 -0.0235244604337 -0.046804279763 0.0336616001446 -0.0181812746982 0.038153678873 -0.0143933016864 -0.0429092157892 -0.0326315780447 -0.0451165196617
die,you're -0.0457411928006 0.014035685046 0.0122753344537 -0.00249980311725 -0.044835958921 -0.00779041585046 0.0114700038367 0.0103879871185 0.018718790291 0.026336268436
smiling -0.0453875366401 -0.0221049377017 -0.00896292472374 -0.0346231068936 0.0301644792529 -0.0241231349205 -0.00534350629595 -0.0174430685198 -0.0260706662683 0.0339062158788
crying. 0.0364933459039 -0.0279419477465 -0.0309793210294 0.0367983908962 -0.0398827209467 0.0378488189577 0.0472920053942 -0.000758305183074 -0.00254231744556 -0.00751961580985
　　Please 0.0168685132267 0.0349568175244 -0.0334270878961 0.0405932865713 0.04296661014 -0.00652439031875 -0.00465677035348 -0.0271988314311 -0.0109723279355 -0.0198812139234
send -0.0468968661966 -0.0110461869062 -0.0134232517408 -0.038956711661 0.0361877223394 -0.0302000679385 0.0417392578207 -0.0465738156324 0.0489304796903 -0.0374537850948
message -0.0444973614364 -0.00905732586938 0.0326863998461 -0.00580909746111 -0.0381286610299 -0.0470741286222 0.0411131496579 -0.0488567616171 0.0381114517778 0.0472821148988
mean 0.000441924534147 -0.0347554500512 -0.0257109441838 0.0498478048729 -0.00408419260233 -0.0366099074211 0.0217602073091 -0.0292431912432 -0.0496031833125 0.00487426882702
something 0.0073928072723 0.0425599004394 0.00152404264827 0.0399332603283 -0.0383107464643 0.0266772888239 -0.00592083494126 -0.0263396445402 0.00856430770091 0.048109234339
you,to -0.0244809018007 0.0402024763366 0.044841145541 -0.0253792968874 -0.0171285316608 -0.0146862893507 0.0474356908618 0.0161266660586 -0.00172946149563 0.0200612276386
way 0.00487561444553 0.0106844934732 0.00656705026129 -0.042420248818 -0.00791066951909 0.00268350239993 -0.0414050517065 0.0255048295253 0.0487150386261 -0.00300938044938
or 0.0391436668092 -0.00761166305177 0.0333839833896 -0.00536083135651 -0.0413823077451 -0.0372471701846 -0.0266554070936 -0.0149104702101 0.039977289744 0.00793446652386
another,to 0.00860932716124 0.0319950094423 0.00845407561723 -0.0342073590677 -0.0473080960721 0.0242429488013 -0.0403106245988 -0.0476206433964 0.0486132122292 -0.0350193323691
smile -0.0327018547376 -0.0119479031346 -0.0329894642684 -0.0202725719103 0.0219305517956 0.00583254051576 0.0302806162874 -0.022717302751 0.00254112885202 -0.0396589056082
need -0.0463962299427 0.0440986360812 -0.0140306841944 -0.0370758920544 -0.0171924263983 -0.0444149712894 -0.0432548806626 0.0425842829021 -0.00831060830593 -0.0245619157878
it,to 0.0399855933553 -0.0283603388762 0.0151361968916 0.0369693890857 -0.0105208530807 0.00784752277616 0.0307779475152 0.0244041403283 -0.0303042914169 -0.0380416881819
see 0.028704828668 0.0166115834815 -0.0430302291512 0.0355265643848 -0.0253346866667 0.0457902950231 0.0157883464547 0.0130488220309 0.0194297759245 -0.03114712786
brighter -0.0318502604736 0.000978789080214 0.00673890230049 -0.0310308905565 -0.00080529890328 0.0146558077261 0.014270741413 -0.0189277228531 -0.0487847020773 -0.00701410098738
side 0.0469251202985 -0.0210375931717 -0.00233385556202 0.0378158542601 -0.030402679462 -0.0131140555638 0.0454462863899 0.037847576246 -0.0184488579566 0.0425807764368
down,to 0.00139856217943 -0.03850119184 -0.0381473810906 0.0156933647776 0.00272158228773 0.0188805725258 0.00244824122379 0.0402891257875 -0.0266596385114 0.026161864202
know -0.0380226331066 0.00102061627102 -0.0340411735045 0.0281414000646 0.0399669886181 0.00916133965139 -0.0322985186629 -0.0244440010642 0.00555992743859 -0.0117145538917
friendship.And 0.0114677697519 -0.046713359978 -0.0291527951195 0.0125414437958 0.0471848149183 0.0471144065483 -0.0145917348624 -0.0054152354359 0.0479350906731 -0.0129045170112
if 0.00189920983826 0.0262932801863 -0.0224602614478 0.0311371388282 0.0474440104777 0.0306198797908 -0.0404712796009 -0.0413690602201 -0.0412531731171 0.0057605438213
don’t, -0.0335923645613 -0.00255172093871 0.0303626737071 0.0103793928718 -0.0353658948833 -0.0218081630051 0.0244030238269 0.00734357990795 0.040257797092 0.0119548483362
worry,nothing -0.0462963545081 -0.02304561552 -0.0483757831188 -0.0113021527688 0.0321585285444 -0.0247448168294 0.0191688708513 0.0156652796126 -0.027136669192 0.0149190860194
bad -0.0429215516997 0.0142511073855 -0.0059503508166 0.0498268610472 -0.0123095665251 -0.0364368066242 -0.00779556567397 -0.0399422660999 -0.00565668508732 -0.0095768263599
happen 0.0483624813558 0.0113168113722 0.00934678342622 0.0429818658011 0.0290504857329 0.0252158331388 -0.00207054197068 0.00188208263893 0.0272432732042 -0.020722388784
you,you -0.049400625815 0.0247953653008 0.0290144032649 -0.0292875252712 0.0483046259298 0.020468500799 -0.0334213656449 -0.00533258834024 -0.030557704238 0.0144581418213
opportunity -0.0370701342935 -0.000696957941677 0.0397889440467 0.0439418943093 0.0412702175609 0.0103555253366 0.0137993506311 -0.0222285023256 -0.0140627286832 -0.0205061179862
brighten 0.0104109566754 -0.0019606367564 0.0365734783079 -0.010238738018 0.0419918930866 0.0405054346801 -0.0336685908735 0.00746032566036 0.00666253752517 -0.0110900600807
someone’s 0.013249096115 0.00579748177019 -0.0243749965268 0.000867821426055 -0.00291819838435 0.0338602691484 -0.0296929514472 -0.00617690541134 0.0054620287628 0.00531401957011
day -0.0456272744301 0.0367357914861 0.0373129266592 -0.0387476873061 -0.0117935218269 -0.0163916146545 0.00059073517484 0.0289510435202 0.00234869885409 0.0203515150077
message. 0.0406492074429 0.0183974915432 -0.037815771082 -0.0369405002894 -0.0225354201926 0.0196149517848 0.0377819253365 -0.0423730511442 0.00805251925916 -0.0463815736373
Hooray! -0.00454745690185 -0.0461701481366 0.020103858927 0.0498432783037 -0.0227341051149 -0.0450098415649 0.0320105017756 0.0449190358957 -0.038922969724 0.0167206576916
snowing! -0.0117474374391 -0.0461350031512 -0.0112716186753 -0.0376307301913 -0.0406650242665 0.00764196783875 0.02733848708 0.0130370027408 -0.0248508802244 -0.015552338535
time -0.0344812255344 -0.0214896887684 0.0121228844458 0.0210635600187 -0.036390956481 -0.00175968852519 0.0260648276581 -0.0260112953605 -0.0122284438809 0.0290505144916
snowman.James -0.0481768373897 -0.021512691138 0.00916448536725 -0.0299708971102 0.0349771771488 0.0129834965374 0.00838790597587 0.0461290355969 -0.00420215052055 -0.0439745616586
out. -0.0479520548829 0.00903737602324 -0.0280754464168 0.0380782697324 -0.0165301129232 -0.0394958593926 -0.0314725017703 0.0422035918846 -0.0119996053865 0.0106244114047
makes 0.0280353775207 0.0033314431827 -0.0276525820064 0.0479768312987 -0.0415051742721 -0.0252243428348 -0.00610608911644 -0.0303233150641 0.0063953134503 -0.00868639465813
pile -0.0453306773627 -0.00563221068884 0.0193899576667 -0.0105750722628 0.00177037596511 0.00857331108055 -0.0420111025251 -0.00403535160695 0.0308103038428 -0.0333222594179
snow. 0.0452478299676 0.0188079801057 0.0231048468084 -0.0418996402953 -0.00868033058946 0.0351927573987 -0.0217150236454 -0.00906711687016 -0.01579458126 -0.0344061195214
puts -0.0440237678496 -0.0275285034272 -0.036636282902 0.0160283790054 -0.0113496331097 -0.0442345935204 0.0317007575558 0.0493006281287 -0.0107532174238 -0.0023619472458
snowball -0.0207845573686 0.00966599846865 0.00774745612615 0.0202369729144 -0.0362007162495 0.0275264005681 -0.0474893866887 -0.0163558326843 0.00817435250787 0.0376411853819
top. -0.00941649879656 -0.00931892677841 0.00670737639335 -0.0111135050221 0.00195212491406 -0.0185707991715 0.0217463574642 -0.0459137464205 -0.0237132236771 0.0357656716076
scarf 0.0118720027377 0.00882222389401 0.0398985799867 -0.0216801685476 -0.0397606500372 -0.0397434223478 -0.0108957132235 0.0113498027562 -0.0215062184931 -0.040851667783
hat. 0.00719123693656 0.0181346691011 -0.0153009130932 -0.0322608151475 0.0320435619284 -0.0119585087479 -0.0148429156923 -0.036902470504 0.0189736666607 -0.00918585670234
an 0.0243540428405 -0.0221727694809 -0.0211456063758 0.0375922090847 0.0247065535243 0.0332523739443 0.0459302026364 0.0245791371384 0.0393326554839 0.0182780510219
orange 0.0192760849746 -0.016758147855 -0.0210250153804 -0.0329518404659 -0.00854176882271 -0.0314509376774 -0.0207562359944 -0.0118467781344 0.0150379746564 -0.049025755617
nose. 0.0249364397577 0.00523622514759 -0.00824811774777 -0.000860989095717 0.000139420706871 0.0182511696501 0.0423636014392 0.0306906434595 -0.0103051438415 -0.024161731059
coal 0.0149009790967 0.0478590514093 0.0419059180333 -0.00823359367866 0.0169627800793 0.0425400719091 0.0139733354812 -0.000806069413614 0.039351826992 0.00552858770597
eyes 0.0390179499449 -0.0482558889388 0.0140635746341 -0.0147678818471 -0.0180242946391 -0.0230691494031 0.0172350889467 0.0338885860989 -0.00141944613026 -0.00807112292905
buttons.In -0.0277996041977 -0.0334140688378 -0.00687028164576 0.000555688987795 0.0367426576149 -0.0208145796354 -0.0446168390622 0.0428427782335 -0.0196687735707 0.0409939083372
evening, -0.0240423772285 0.0107746400624 0.0364496277933 0.0433900815233 -0.0392019452122 -0.0129251166739 -0.00955450528329 0.00898834462828 -0.0379684463869 -0.0120752104492
opens -0.0360649307755 0.0183525279689 -0.0477416522364 0.01303433322 0.0326072841064 0.0317851807968 -0.00974129872209 0.0471445396617 -0.0273439909933 -0.00500970496204
door. -0.037366827925 -0.0412027092659 0.032417760544 -0.042075264184 0.0227733094729 0.0403190476067 -0.0117833390525 -0.0323662112129 0.00810791386341 -0.0282452735116
does -0.0424439605798 -0.0293751208738 0.00672079730325 0.0248346122572 -0.0405560439732 -0.0295572720005 0.0370131760344 0.0453392810827 0.045253637295 0.00207155739884
he 0.00960978622055 -0.00681956376785 0.0130573661095 -0.00266318487259 0.035855317752 -0.0462098460169 -0.0272592080433 -0.0323455366168 -0.0456700514285 0.0359433546896
see? 0.0322714389531 0.00788520577188 0.00277287650447 0.0414532552813 -0.0179551264135 -0.0394747388838 0.02602307331 -0.0140960822052 -0.048427679789 -0.0462287143253
moving! -0.0310359660707 -0.0210081592266 -0.0180045883111 -0.0394070562732 0.0259163865313 0.0382798447969 -0.043497443436 -0.0381814547769 -0.0478435892579 -0.00458632510449
invites -0.00958617923077 -0.00621203837504 -0.039668797557 -0.001280532266 0.00814660106205 -0.0470999244712 0.049129481962 -0.0303559480265 0.0223289099995 0.020692665223
him -0.038005742771 0.0430967796233 -0.0299823443607 -0.0247199675161 -0.043801843795 0.0193516389184 -0.041527439355 -0.00197659917309 -0.0290122041572 -0.0157841647567
in. 0.0195490223974 -0.0257928646779 0.00226752845914 0.0266141944547 0.0059944083436 0.0337442510467 0.0280195244003 0.016333477106 0.0426514025499 0.0174927428636
has -0.0285842500374 -0.0109518048235 -0.0179285907785 0.0478404089942 -0.0318121494984 -0.0480587430679 -0.0417873423936 -0.000226694495022 0.0164206853514 0.00346261210725
never 0.00735851413971 -0.0277853872059 0.0212769918556 0.0270822519908 0.0342905090836 -0.0373187426205 0.00690714363027 -0.00927244805582 -0.0189840213789 -0.0220932302987
been 0.00591966505209 -0.00565679124287 -0.0237318135343 -0.00267835916018 0.00504328318611 -0.0251959006787 -0.041418713139 -0.0388761487426 0.0181122765497 0.0405646462569
inside 0.0355295422339 -0.0189306651801 -0.0427418787762 0.0323289419577 -0.0138795973546 0.0119655584077 0.0166931539728 -0.034235985375 0.0224687795475 0.0248028080657
house. 0.0489485819533 0.0146023927104 0.047632417959 0.0238930922708 -0.0251778591339 0.00313527293176 -0.00716879081617 0.0133383285719 0.0219668063643 0.00838768521876
says -0.0139373186266 -0.0227598792106 -0.0418949876428 -0.0444059628269 0.0163450098951 0.00225938602577 -0.0214130107102 0.0279154801668 -0.0323860738525 0.0488785550345
hello 0.00185265819547 -0.0166041629761 0.00173115081932 -0.0466603553992 -0.0228808685971 0.0427656850703 0.00488586363762 -0.0370773151996 0.0026084953658 -0.0437894206766
cat. 0.0221198485079 -0.0308774034852 -0.0356134847813 -0.00550245364723 0.0118185058826 -0.0264771072816 -0.0432088400163 -0.00778036431904 -0.0263722367426 -0.0278711572548
plays -0.0373329199197 -0.0485111996134 0.00837604193297 -0.0135283504427 -0.0296357341988 -0.0212123688011 -0.0282695597688 0.0289300173329 0.0446945819347 -0.0471727553943
paper -0.00220458105171 -0.0266210233052 -0.0200006414338 -0.00652007572882 0.00280850868359 -0.00586579668318 0.0431919213973 -0.0203162471733 -0.0262079552861 0.0250571016699
towels.A -0.0169401218891 -0.0489395710869 -0.041839127756 -0.0261872851156 0.0208961027466 -0.0354920158868 -0.0243538552356 -0.0264999740659 -0.0435539111227 -0.0425424560937
moment -0.0147428545463 -0.0257113072793 -0.029842106676 -0.0175474390328 0.0336403504171 -0.0311947138304 -0.0258417866375 0.0254754804594 0.0215778726892 0.0216730771415
later, 0.0269711320087 0.0359320594902 -0.0291405471508 0.0326365578061 0.0066747830644 -0.0269349424996 -0.0214086145194 -0.0253543146743 -0.0140640760647 -0.0239178203276
takes -0.00651408968311 -0.0125488754813 0.0247564019319 -0.0198693179792 0.0446062818844 0.0156903446229 0.0290180322908 0.0286047295676 -0.00996005077045 -0.0221889005675
James's -0.0317380215429 0.0282165589394 -0.0312438445238 0.0215166656103 -0.0446596734385 -0.0473878372495 -0.0111826649351 0.0421353176957 -0.0266379788002 0.0183137802597
hand 0.0265609071497 -0.0184922640898 -0.0258688197348 0.0382171280658 -0.0408677061189 0.0438169519673 0.0177209556749 0.00287608539868 0.0100609794582 0.0145770944937
goes 0.0176019288912 0.0167748268618 -0.0466077926017 -0.0343151765967 -0.0398096009043 0.000283797211912 -0.0109943147617 0.0453208010128 -0.0179318954977 -0.0491219259007
out.They -0.0181825352535 -0.0494570634181 0.0146735634123 -0.0144380327187 0.036264314702 0.00395814707307 0.044489830169 0.0152976317626 -0.0249123222742 0.0401352697905
up 0.0173082817125 0.0485847566807 0.021433579217 0.0461088812692 -0.0278414681436 0.00485218631752 -0.0471210005446 -0.00207469676199 0.000674990299405 0.0378337463077
into -0.0263505740357 0.0121284174097 -0.0115033525096 0.0388566446962 -0.0167876799822 -0.0237159973578 0.0404173555458 -0.0150892039497 -0.0168567023767 -0.029551800056
air! -0.039824070732 0.016961348645 -0.00835145132494 0.0501876140841 0.015861647553 -0.000733670080098 -0.001725017764 -0.00168441638177 -0.0417011174543 -0.0459097478752
They 0.00843300593099 0.0303623174715 -0.041418676653 0.0500697389729 -0.0470148538839 0.0410044811817 0.0038391058072 0.00799586008296 -0.0253440885163 -0.0441742399855
flying! 0.00068286081396 0.013101014909 -0.032599236475 0.00242277922193 0.016311909205 0.00508527129591 -0.0349651053279 -0.0262817489161 0.0021397435666 -0.0379689857733
wonderful 0.0433800239871 -0.0282818475758 0.0183869826633 0.0495312771285 -0.00450863522372 -0.0099196125468 -0.03197956417 0.0452616749491 -0.0108780312565 0.0264165585185
night!The -0.0447371472556 0.0377630175571 -0.0275813046842 -0.0172009754179 0.0225889291433 0.0142537593087 -0.0343737504056 0.00892360379231 0.0380340946582 -0.0437745742345
next -0.00900258226124 0.0146629397914 -0.0286623511957 -0.0442775509922 9.25393417381e-05 -0.0444224570465 0.0157527977179 -0.0292753246853 -0.0477250493369 -0.0167042948564
morning, 0.00694359683088 -0.016336223892 -0.0456066977885 -0.0035333044672 -0.0173021067791 -0.00155331401319 -0.0253839177675 0.0132687221088 -0.0200314247817 0.048103740355
jumps -0.0402619787894 0.00339125322988 0.0258678582438 0.0486751448864 -0.0138726092178 -0.0180230617208 -0.0246813101986 0.00705440809363 0.0219844024186 -0.0365947752144
bed. -0.00519940716451 -0.0258141154752 0.0240817262768 -0.00507994171717 0.0265906640776 0.0447820656328 -0.0249766296899 0.0305358858019 0.0156719367148 -0.0300879741928
door.He -0.0248568904873 -0.00233631350704 0.0373198528411 0.0292890069946 -0.0241256738839 0.0379988860311 -0.0193191857313 -0.0251011914168 0.0158262870107 -0.0229356429358
wants -0.0296199794274 -0.0467825320049 0.0241087979079 -0.0130291395006 0.0477255930229 -0.0456374947381 0.0318645929849 0.0205452559726 -0.0308471616031 -0.0215285439176
thank -0.0230541324298 0.0273264888115 0.0416506045925 -0.00876832858324 -0.0140164593931 0.0140502366977 0.013402737947 0.0362738459182 0.0237144228486 0.0364045787353
snowman. 0.00914766731922 -0.0440327622398 0.0234351267571 -0.0415317678585 -0.0366873132461 -0.0508700913356 0.0383175691953 0.0444853346053 -0.00976785572322 -0.0227455803388
But -0.0403930819656 0.0474776684379 -0.0461546747526 -0.00362457824064 0.0312081725383 0.0129021455354 0.0385832971679 0.0175405991461 -0.0281300054352 -0.0347116477345
he's 0.0147207565497 -0.000521342145694 -0.0243416646049 0.017536808866 0.0167962579895 -0.0435864794842 -0.0447546819969 0.0215612818531 -0.0220643264157 -0.0395464361554
gone. 0.00334713520404 0.0191997786601 -0.000201266004919 0.0173308491183 0.0473324499035 0.0476695618651 0.0196971443173 0.0144541814809 0.00546175372431 -0.0076272438275
<unk> -0.0206189459231 0.048566312857 -0.0142729436906 0.022111802628 0.00342012943031 -0.031659477958 -0.035052472285 0.049712530303 0.0484647568933 0.0334779309038
