242 10
you 0.066278758665 -0.0624142407303 0.0216344291476 -0.00658214798964 0.0435275846623 -0.00580829500554 -0.0554463891444 0.00137482673596 -0.0534911184785 0.0134074567206
to 0.0710063173538 -0.0578955576041 -0.00803191927182 0.0218318924823 0.0347732089011 0.0099760959618 0.000423403678784 0.0187035135955 -0.045356784221 0.0456292080625
the 0.0279511035242 -0.035853812324 -0.0365101754676 0.0407262368999 0.0774702920023 -0.00820978254794 0.0257455286146 0.0507117530458 -0.00626965271545 0.0384635836966
<bol> -0.00487336993707 -0.0142770479575 -0.0484555621062 0.0376265594497 0.018770317592 0.0218240677867 0.00139358605772 0.0435600623853 0.0210076311591 0.0190503419392
<eol> 0.0434249526116 -0.00163573131557 -0.0286789579116 0.00214847652737 0.0192961884433 0.00193370133376 -0.0414355024828 0.0129794172939 -0.0383601306814 0.0520689620041
a 0.0380898619918 -0.0559291749008 0.0439574009208 -0.0438859407666 0.0151776846526 -0.0183591198609 -0.0395048793513 -0.0216025355113 0.0333619229898 -0.032492565663
and 0.000569771832486 0.0101462883125 -0.0117517038612 0.0170177297243 0.0375785637432 -0.0331864607002 0.0105643108166 -0.00122382936864 0.0182066433736 0.0204489785959
who 0.00129802219803 0.0156549884371 0.00589649238017 0.0115857784676 0.00217509772086 0.039829021654 0.0147584906548 -0.0032498834278 0.0456333217831 -0.031613459644
of -0.022135965025 -0.0409054640084 0.0268622263532 -0.0446039468879 0.0370895982273 0.0471642030294 -0.0132649988741 -0.0388654540615 0.0394162443179 0.0415528681787
those 0.0241425800034 -0.0422508583375 -0.0482470175239 -0.00844106478165 0.0410741112246 0.00680751047163 -0.00221687435779 -0.0142761319423 -0.0351838724948 -0.0448008511865
He 0.029820862319 0.00810013508945 -0.0372300140911 -0.00302590662952 -0.0153929848937 0.00140345335028 -0.0554179686656 -0.0070223046803 -0.0482293858241 0.0269470831996
have 0.0331145407683 -0.049413867456 0.0254165605344 0.0107902672159 -0.0252623168341 0.0385506721582 -0.0105870809423 0.0508038174732 0.000768716487078 -0.0221338044565
make -0.0158954781395 -0.0248373406331 0.026040816047 -0.0196896899343 0.000224060698036 0.0484048875814 -0.0365323647128 0.0454434042984 -0.0473878548356 0.0405675808744
that -0.0181386196735 -0.0462530254775 -0.00153410042051 -0.0472891222639 -0.0455015103321 0.0103903528378 -0.00260559351075 0.0439268391146 -0.0211806141337 0.04130295467
want 0.00965994352606 0.00270218882821 -0.0257513017676 0.000661940742651 0.0436048165372 0.00833907640955 0.0471630311142 0.0242203258301 -0.0422086523399 0.034437170713
with 0.000204327696411 0.00994704883412 -0.00340965267691 0.0467335009554 0.0208385379513 -0.0405400424692 -0.0305547574066 -0.042803288753 -0.0184299946424 -0.0341384601198
in 0.00649155366787 0.0235331121015 -0.0382393794345 0.0246711344543 0.0471465858434 -0.0346073234981 -0.00955925283091 0.0388770502567 -0.00768313503239 0.0418924034509
life -0.00336516241729 -0.0125861186192 0.0247895414871 -0.0213019717681 -0.0284456668164 0.0263129955281 -0.0305743625461 -0.0317490982111 0.0272206253202 0.0203363131189
when -0.015425807585 -0.0312286310623 -0.0411566474589 0.0354315401432 0.00759943892241 -0.0239031798331 -0.0148369300603 -0.0356138023274 -0.00188902518612 -0.0154691082024
your 0.043222290444 -0.039927244457 -0.0497262641634 -0.0341200452658 0.0233506164024 -0.0203100035381 0.0398931025898 -0.0256504819654 -0.00342937141887 -0.0376210145196
for 0.0287323532508 -0.0182445411603 0.0476785774478 -0.0462275678618 0.0328674848253 -0.0234791781742 -0.0340046853894 -0.0365454771355 0.0229979692522 0.0424233667835
one -0.00594229322407 -0.00895123633895 -0.0281808557079 -0.0472290200676 0.0199195518289 0.000259448443692 -0.015380014955 -0.0274516331702 0.0448857647953 0.00121000567881
on 0.0139471371348 -0.0473703942235 0.00912978399125 -0.0261246513957 0.00140311536701 0.0442940847443 0.014244393648 -0.0446418577877 0.00319333781098 -0.0372555663716
are 0.00164493450859 -0.0268019264034 0.0483963391343 -0.011275860672 -0.0320619098487 -0.0175274210756 0.0239666424693 -0.00508624158969 0.00256142592396 -0.0401161627283
just -0.0228963102018 0.0307568753521 0.0425829676475 -0.0416818199542 -0.00658203505604 0.00510476707513 0.0417765101473 -0.0125281923685 -0.0462917278554 0.0283802496147
them 0.0164557334793 -0.00552577513751 0.0244903932206 -0.0442909993141 -0.00766933684516 0.0480012384478 -0.0263040996133 0.0314734140894 0.0241417769266 0.0157831953306
people -0.0348864156711 -0.0368440177566 -0.0375732920793 0.0432521521063 0.0441113013544 0.0197007708285 0.00668547515751 0.00074779725903 0.0144921732687 0.022308390628
their 0.0439933455442 0.0053080169035 0.0397708287216 -0.0317332963143 -0.0390490801302 0.028095971475 0.0425698416901 -0.0407840693885 0.0264289343845 -0.0469242543426
will -0.0298981493662 0.0173751905104 0.0203966506879 -0.047389519121 0.0194919768975 -0.0326040922608 0.0320958755995 0.0396563066809 0.0402439055706 -0.032877295182
go -0.0214461151478 -0.0393590855594 -0.0158054554082 -0.00103569279241 0.0398183084746 -0.00612185545184 0.00659018990967 0.0403833705688 -0.000776527546363 -0.0149062948895
is -0.00815600362342 -0.0431035220474 0.0347073623583 -0.0455875575467 0.0410618121861 0.00536679791444 0.0247861134099 -0.0258778249812 -0.0441425519959 -0.0153122452382
adds 0.0545939925149 0.0217418409408 -0.0241699123083 -0.0234620631394 0.0328567787384 0.000928451797046 0.0369024523868 -0.0461175432131 -0.0476514184912 -0.042077517214
James -0.00822507920067 0.0044065875561 -0.044338847142 -0.0311192983725 0.0145449467284 0.0401476832614 0.025644465526 -0.048511672962 0.0241453259375 -0.0232329262591
snowman -0.000101811243193 -0.0408646227477 -0.0114059206052 0.0148736801982 -0.0277799438881 -0.0149980164811 -0.0110489145604 0.00919725243754 -0.0451425072614 -0.0391544106344
miss -0.0253675278515 -0.00665365938976 0.0367814629891 -0.0426087552133 0.0278917804471 -0.00923425679965 -0.0364362488121 0.0178689727212 -0.0271180148918 -0.0227259220635
so 0.0409815836114 0.031618024707 0.0476505987446 0.0420267354795 0.00799757590647 0.0415424953517 0.00673088556333 0.00332098308878 -0.00249777347075 -0.0225495432528
what 0.0428333202823 0.041940971196 0.0443959149058 -0.0495993513537 0.00777827162258 0.00454043195615 -0.0482200992874 -0.0343119354806 0.0464348178333 0.0309399807867
only 0.032041515268 0.0275312550554 0.0314707351276 0.0308705692823 0.033667368677 0.0327853824356 -0.0352609450082 -0.0292016244671 0.0244115414701 -0.0424607685443
things 0.0419093244882 -0.0494889167722 -0.0463295018939 -0.0315867846174 0.0173986808851 -0.0209571417343 0.0459602830199 -0.018203732185 -0.0301485599451 0.0338601268252
hurts -0.0316707624881 -0.0413787347374 0.0420883245269 0.0463680260875 0.0244919156419 0.0468639109283 0.0171719496784 -0.0157235530766 0.0171763924151 0.0210622761714
don’t 0.0190409040185 0.00165157989931 0.0134144695623 0.0164582752885 0.039050138139 -0.00844204193493 -5.6125325167e-06 0.0360485190828 0.03871473671 0.021414475741
appreciate 0.0149051615049 0.00436222833609 0.0427702355549 -0.0163756211877 -0.0146802405981 -0.0477181555377 -0.00482250944066 -0.0492209082474 -0.0100183267642 -0.0219484728825
touched 0.00500431465421 -0.0304919864952 -0.0483540061385 -0.0114800321641 0.0406611390529 -0.0218909017687 -0.0181068031924 -0.00248005015708 0.0121073401356 0.00586913465411
let -0.0434217654406 0.022355920389 0.0125458047817 -0.0261479663955 -0.00372133409915 -0.0395029849923 -0.0378837645669 -0.0299403639755 0.00125041898439 0.0152501749761
were 0.0403873151969 0.0264739789408 0.0426489035252 -0.024673940606 -0.0267582416951 -0.0249079421827 -0.0414133488363 -0.0087340677275 0.0415209194073 0.00244739664171
everyone 0.00340695214102 0.0175443511644 -0.0178937951029 -0.0140162501559 -0.0202552908617 0.00879072848651 0.0430129502231 0.0174659035456 0.000305659028903 0.00614512827491
around -0.0370738856382 -0.0228710664957 0.0370942489901 -0.000146226598138 0.0167609945854 -0.0453661398632 -0.0090122815 -0.00589746319275 0.0150855278229 0.0211070663184
this 0.0107421288333 -0.00213031954075 -0.0421202816822 0.0334332810554 -0.0194072653501 0.0210154519942 -0.0442315322971 0.0166420732584 -0.0118704866201 -0.0492358112557
really 0.0426317516388 -0.0145917399322 0.00029773839452 0.0409767165402 -0.0211565477446 0.0273884757789 0.00902307610939 -0.027011369702 0.0419969354381 -0.0403169539893
out -0.0429398500434 4.99709227511e-05 0.0414769702407 -0.032812514345 0.0538658036119 -0.0208110152017 -0.0501685428192 -0.023730275231 -0.0422636321258 0.0173181919331
It's -0.0430804860262 0.0159590041271 0.0377156484734 -0.00590865052355 -0.0329487228109 0.00835095232789 0.0268325221227 0.00604516429782 -0.00450004685428 -0.0368428750702
runs -0.0406945048226 0.0410844072646 -0.0448648363736 0.00261587074451 0.0095903506679 0.0107729194505 -0.036487565603 0.023306958975 0.0167620882784 0.0255788978915
big -0.021930108799 -0.0403238743724 -0.018135463509 0.0274144911837 0.043426217777 -0.0170982635995 0.0180944735662 0.0167346730912 0.0260289744964 0.040649451258
What -0.0107833033776 -0.0246314279995 0.0475461090833 -0.0101775206122 0.0127707238965 -0.0153505167578 -0.027273551736 -0.0267512447333 -0.0293780320153 0.0282149190687
The 0.0199452026627 -0.00229712505805 -0.0321868198904 0.0166050605586 -0.00512939818905 -0.0283651346011 -0.000636661097266 -0.0438447721502 -0.0117987803501 0.0430210652341
up, 0.0414791118702 0.0113133498086 -0.00466853497505 0.0227198049393 -0.0461108335444 0.0242164710623 -0.0479076593505 -0.00103663324579 0.0266739242007 0.0314810524391
《You -0.0459495275425 -0.0379141427135 -0.0425215543608 0.00704691022982 -0.031636194579 0.0280412678051 -0.00657521178525 -0.0209613444305 0.0232016620101 -0.0307386261333
Have 0.0470157391636 -0.0346694603375 0.0388050522191 -0.0347001540276 -0.0298154351638 0.000357626026625 0.0162558910568 0.000164303146009 0.0379085802163 -0.0483705907275
Only 0.0152383900352 0.0368886325282 -0.00701426239699 0.0122836580195 0.0427390371053 -0.0458560004961 -0.0478621165342 -0.0384762570773 0.0306042690095 -0.0174390275885
One 0.0339729518974 -0.0466020000976 -0.0101060114479 0.000725481632453 -0.0210298453297 -0.0466154940099 -0.0201516588994 -0.0410285526853 0.0396133277277 -0.00293009645609
Life》 0.0448408696249 -0.0169268778868 0.023689164712 0.0183782547487 0.0405425758998 -0.00781262874811 -0.0112489955386 -0.00298004500009 -0.0250689342569 -0.00891573465558
　　There 0.00473114218435 0.04696573213 -0.00494011673597 0.0461909677811 -0.0411432575242 0.0419763539744 0.00364442367873 -0.0284555973422 -0.0269420428344 -0.00830772832921
moments -0.025231608873 0.0335937827351 0.0222373510031 -0.00920262034391 -0.0138151946971 0.0429158022556 -0.0462626889733 -0.0145417112969 -0.0495039851518 0.0140810338099
someone 0.00250310429544 0.0346959034284 0.046680025641 -0.0361865486964 0.00710609778877 -0.0295110035424 -0.00311334745928 0.000230898705132 -0.00432797148879 -0.03846868759
much -0.0037247639275 0.0190814203158 -0.0495611052024 -0.0104855754692 0.0257125312409 0.00600246841801 -0.0133451584516 -0.0379821540495 0.0289907820278 -0.0299010653267
pick 0.0442249177138 -0.00680737438772 0.0396919250259 0.0265260802933 0.0261922955855 -0.0399037002157 0.00264898648792 -0.031995623365 0.0353746957777 0.047600777119
from -0.0383957089187 0.0170263122692 -0.0021149856916 0.0486738920117 0.0375845306425 0.00196558180201 -0.0358185053662 0.0417055822834 0.0308476804938 0.019474559036
dreams -0.0336175619026 -0.0166858498692 0.00603286099113 0.0271432254436 -0.0438382701514 0.0152357260824 -0.0317713741433 -0.0127420117778 0.00762649786009 0.000984414607038
hug 0.0467405646921 -0.011897295219 0.0429073712977 0.0202253172597 0.0413107962107 -0.0100824768845 -0.0335201619944 0.0228035178368 0.014237436486 0.0116012920924
real! -0.0351114089022 0.00812683433327 0.0433457616397 -0.0135539277392 -0.0372768803625 -0.0480482656143 -0.0485088496394 -0.0157488271191 0.00899040603137 -0.0438691762059
Dream -0.0494114136773 -0.00852427488012 -0.030165626203 0.0176209078336 0.0351554468292 0.00642527446313 0.0164383960773 0.0346998097822 -0.0330767475523 0.0472897551788
dream;go -0.0340497842352 0.00663331936231 0.0231886175773 0.0301105935641 -0.0465867036304 0.0201930237496 -0.00383974104878 -0.0370257449379 -0.0130180837286 0.0382437036942
where 0.00834804496192 0.013396114956 -0.0049378838748 0.0384213987605 -0.0383253020269 0.0070922617546 -0.00559826665379 -0.0206232554362 -0.0406265298692 -0.0420711081653
go;be 0.00986078049325 0.00759920633516 -0.0264214818863 0.0457508823909 0.00365986934359 0.0273139839038 0.0496920023737 -0.0266470808038 0.00758160638346 -0.0424784786132
be,because 0.0408360787284 0.0248099754499 0.0394948119989 0.0288627546038 0.0385469674227 0.0216504969016 0.0167933750644 0.0436304644789 0.01630185299 -0.0452690740684
chance -0.0470362321049 -0.00192874759494 0.00951493540613 0.022263160672 -0.00797082552238 -0.0252862083354 -0.033416982844 -0.00273169170978 0.0149101565496 -0.0233717033219
do 0.0233615212789 0.00633266083252 -0.0392395693393 0.0349893758356 0.0383252379559 -0.0468023371144 -0.00795506384966 0.0145344958233 0.0465879982446 0.0280354585296
all 0.0478712059013 0.000620292718853 -0.0272836331137 0.0206344481464 0.00284425445787 -0.0469505484597 -0.0395523012278 0.0233592345213 -0.00392188397874 0.0352045777769
do. 0.0335000699534 0.0195724049068 0.0187573086694 -0.0250883095845 0.048331639886 0.00611571852202 0.00507768641047 0.033485405589 0.049230945882 -0.0255848060252
　　May -0.0487676082077 0.00144336059221 0.0152209804457 -0.0329342136735 0.0414858568735 -0.020196236225 0.0281904425593 0.0360634245387 0.0490112488028 -0.0353833515834
enough 0.0110160149273 0.0194910231257 -0.0461163321154 0.0391204534232 -0.00973209512875 -0.0114380473565 0.0287457799941 0.00393451464541 0.0374344290551 0.0432464632319
happiness 0.0399648228169 -0.038586707085 0.0218333235605 -0.0329209270067 -0.00391733085363 0.0194713170412 0.0139206918577 -0.0364786182142 0.0093316076696 -0.0493004858174
sweet,enough 0.00231893379088 -0.0327034885528 -0.00486317022507 0.0475971919839 -0.0318222475215 0.0495110469935 0.00666109621645 0.00589359958259 -0.0168527902935 0.0400217430261
trials 0.0459059749062 -0.0138921401109 0.0265050436773 -0.0294508606031 -0.0058837863284 0.0253268609669 -0.0172751326513 0.0336029731701 0.0411371607201 -0.0437021395884
strong,enough 0.0337038328535 -0.017454426565 -0.0359944939057 -0.0225624424012 0.0465813443703 0.0266633090935 0.0382544362799 0.0280235612924 -0.0246882486581 0.00446626588038
sorrow -0.0304476850376 0.0135841758328 0.0398900312788 -0.0497469003861 0.0339788582401 0.00105818612549 -0.0327573599549 0.0199775258693 0.00708280099676 -0.0276740703702
keep 0.0407410355482 -0.0123405863309 0.0149443414873 -0.0371135943149 0.0352538899368 -0.0137505963876 -0.00728000245019 -0.0139373094154 0.0180134849307 -0.00510115905245
human,enough -0.0469416912846 0.00632021005911 -0.0410127381317 -0.035066234996 0.0103542285585 0.0359270754855 0.00593899598921 0.0243503274476 -0.0247716776631 0.0203103362652
hope -0.0403538397456 -0.0295153684125 0.0395661695763 0.0359609744402 0.0112864779722 -0.0361557529734 0.0238280052794 0.0184161671407 -0.0190514715299 0.0340445132974
happy? -0.0474843167798 0.0303568285213 0.0389436723479 0.00192484654669 -0.0483953239415 0.0387643597657 -0.00144679980303 0.00896950820045 0.00653640292077 -0.00767084992905
Always 0.0398550724276 -0.0305209453363 -0.0368519490207 0.0187331822439 -0.0331897532522 -0.0345036146849 0.0228529920317 0.0185046080967 -0.046256718485 -0.00352650509845
put -0.0337470351006 7.61005831537e-05 0.0372179883535 -0.0159514713054 -0.0178328994697 0.0263071761482 -0.0475724219896 -0.0136244091688 -0.00505612188528 0.0395129055953
yourself 0.0215092619679 0.0352424224114 0.00781912013222 0.015723971831 0.0173895500649 0.00566086217552 -0.0473245941203 0.0190942130325 -0.00180907212238 -0.037536423962
others’shoes.If 0.0441439201284 -0.0325963497118 -0.0289983849232 0.0345204515042 0.00812535496527 0.0355612872873 0.0151045124304 -0.025750024761 0.0431145135924 -0.0152555953402
feel 0.00666917609063 0.0451713527572 -0.0099610388118 -0.019113057957 0.0415296676405 0.00896156521923 0.0468953674235 -0.0318381663193 -0.0315577625305 0.035785853567
it 0.0168938112112 0.0449975161347 0.0443035670977 -0.0390284492001 -0.0330873226797 0.0342186744916 0.0479368613286 0.0392065427964 -0.0031397273285 0.0448928580139
you,it 0.0302587883913 0.0144442841313 -0.0260719830105 -0.0267705676507 -0.0213898469961 0.0174538637042 0.0135630538978 0.0365886342686 -0.00736475763042 -0.038465146204
probably -0.0149262387715 -0.00287367433647 -0.0114945523422 -0.000809677091303 0.0449633040797 -0.00125466713273 -0.0207055024335 0.0142753282234 0.0239067833452 -0.00652992904236
other -0.00229687151739 0.00343973965747 0.0255507154847 -0.0247213699759 -0.015533231339 -0.0446029081119 -0.0484885718312 -0.00473039739434 0.034832480433 0.0451837935104
person, -0.0299166559847 0.0147586814027 -0.0316890468716 0.00341301101907 0.0211039627677 -0.0366155907425 0.0146737147258 0.0242985371059 -0.0013361200528 -0.0425518659372
too. 0.0265294883528 0.0213186285778 -0.0104287920617 0.0160860953886 -0.0465233874765 -0.0157024264878 -0.00840437771563 0.0495739850287 0.0227034281103 -0.0289852507204
　　The -0.00847134127618 0.00042234642409 -0.0197087703563 0.0109190833127 0.0281434024689 0.0257353610174 -0.000490810998786 0.00608300976436 -0.00181486294033 0.000285176431163
happiest -0.0373488288433 -0.0482838015634 0.0275769333401 0.0361583387905 0.027319863839 0.0278535911816 -0.0334795273821 0.043064626538 -0.0490982375729 0.00824971916816
necessarily 0.0141067173881 0.0469517919441 -0.0283370268534 -0.0242159736498 -0.0223025132557 0.0383878771078 0.00969086310534 -0.0463794413124 0.00326701877892 -0.00219663718798
best -0.00368111878243 0.0457793011888 -0.045299590705 0.0472632621302 0.00218585390072 -0.0482738137037 0.0287983736173 0.0495033386291 -0.0493039203806 -0.00399524498575
everything;they 0.0190727694307 0.021766216551 -0.0444319640781 0.0227154885984 0.00203929049323 0.000747473114621 0.00356470436471 -0.0241837693485 0.0452392446581 0.0501618302448
most 0.020543504194 -0.0140659937541 0.00926103925914 0.0257056870598 0.0221216817695 -0.0311400086853 -0.0078979696904 -0.00349195866063 -0.0225186401525 0.000648003081006
everything 0.016219457549 -0.00555055324826 -0.024592487851 -0.0197790842166 -0.0217893357767 0.0206452623701 -0.0111885076876 0.000329411591617 -0.0447788868807 -0.0111406871275
comes -0.0018228826555 0.0269572542025 -0.00300050569691 0.00664429627819 -0.0442006397875 -0.0173716373322 -0.01503696473 -0.0169649909933 0.02698232181 -0.0336199477558
along 0.0269429169828 -0.00163257900808 -0.0225301537188 -0.0336359611649 -0.0411490815625 -0.00542564298528 -0.0200653657885 -0.0351218409398 0.0174599723043 0.0257016794736
way.Happiness -0.00605428323532 -0.0320122755474 -0.0432303522038 -0.0288129749812 -0.0423022435205 -0.00678412295893 0.0274676827527 -0.0376594585568 0.0162735833713 0.0182267584192
lies 0.042020658512 -0.043958590929 -0.000896621508313 0.0259504060222 0.0109818313188 0.0461782556459 -0.0387947973236 -0.0351327252538 -0.023624459526 0.0448983640772
cry,those -0.0255544066481 0.0324770105669 -0.0360279321677 -0.00486520205095 0.0340650278887 0.00974680289831 -0.0134195147218 -0.00489395951111 -0.0196184200134 0.0460451954792
hurt, 0.0339809474647 -0.000474893159251 0.0205726300552 -0.00419534684747 -0.0330241221979 -0.0338917170793 -0.0167088228079 0.0402646787895 0.00712267454359 -0.00214743777984
searched,and 0.0128413259286 -0.0219335144827 -0.0470039577252 -0.00641507153927 -0.0107499439983 0.0450954309606 -0.00560941466186 -0.0431034374279 -0.0151610660394 -0.0320358632629
tried,for 0.0136168784144 -0.0433514078327 -0.0415868552131 -0.0104094580512 0.0266967552616 -0.0466099278943 0.0325885109907 -0.0183810290042 0.0309013994809 0.043714097118
they 0.0031704578194 0.0292788268209 -0.0256902278146 -0.0451690111661 -0.0446650245636 -0.0482258666907 0.0158884976698 -0.0399056347106 -0.0223439734662 0.0472689440464
can 0.0184929451119 0.0103706849501 0.0419776138764 -0.00857080811196 0.000983058036732 -0.0225596743382 -0.0302420317824 0.0357446248249 0.0219356254659 -0.0270444100786
importance 0.0156498360812 -0.0311485549476 0.0178814506195 0.0193522674779 0.0268197609213 0.00827805615481 0.0196179375028 -0.0230446323954 -0.0236773460555 0.00206033294825
　　who -0.0492053661604 0.0139988000525 0.0172212830818 -0.0457694712866 0.00808666087159 -0.0282936327926 -0.0347720471453 0.0266684131768 0.035628127688 0.025242698036
lives.Love 0.0271593985289 0.0322326461096 0.0200792531643 0.0266271142397 -0.0258165130385 -0.0336707199466 -0.0101114485555 0.0468635076017 -0.0475425843295 0.0433636347796
begins 0.0423979680767 0.0149055957832 -0.0091465525412 -0.0267523393919 -0.0229217063861 0.0490978370369 -0.0477508466456 0.0446641786192 0.01597901811 -0.046809851063
smile,grows 0.0398523117908 0.00830542844379 -0.0313512606725 0.00644736834319 -0.0308498894815 -0.0196263522506 0.0496876046014 -0.0414890289117 0.0459221179712 -0.00715507503536
kiss 0.0328751246129 -0.00854922493697 -0.0163020663199 0.0372931992013 0.0475229177278 -0.0450286039657 0.0152641512976 -0.0072897699244 0.0490949367911 -0.0444249576512
ends 0.00198683948205 -0.044778680151 -0.0202766367663 0.0335053954222 0.0329860915082 -0.0268978387218 0.0152872081388 -0.00234226650265 -0.0478891255854 -0.0342486445527
tear.The 0.0352339199671 -0.00607221040518 0.0246055986506 0.0097798486057 -0.026232850064 0.0434437595273 0.0419267350755 0.002773023324 -0.0231409338451 -0.0283991552128
brightest -0.0475098827075 0.0469628496678 0.0285891966922 0.000367330780089 0.0412109436474 -0.0408088410296 0.0334156130287 0.0138210659953 0.04537112761 0.00869743977482
future 0.00643713430477 -0.0229321816041 0.0106107869755 0.0455534214031 -0.001479074819 0.0488334053112 -0.0089932164346 0.0282966638186 -0.0494591078786 0.0300349647844
always 0.0396393165328 -0.0248713670923 -0.0171917244516 -0.00903594962217 -0.0212858619894 0.0404378762793 -0.0158804671042 0.0199493998674 0.00990990320937 -0.0151150891707
be 0.0430117008602 -0.0252411086615 0.0247933804216 0.0488620774269 0.0317616091178 0.0475349801527 -0.03273022337 0.0389019111117 0.0262291790621 -0.00160920060851
based 0.0438011622134 0.00873355037697 0.0242285480495 0.0379568640911 0.0167119931705 -0.0341901336079 -0.0162467966035 -0.0118313653319 0.00195968253172 -0.0224701945407
forgotten 0.031257984286 0.0130425069469 0.0235641825951 0.00664104342384 0.0504471240253 -0.0413592461795 -0.0382168176722 -0.0313065363676 0.0316661271949 0.0210795979832
past, 0.0217683551018 -0.0204237877146 -0.0431021451443 -0.0458958485564 0.0105134438024 -0.00191050631222 -0.0432612349203 -0.0103349458122 -0.0341167564226 -0.0476708756817
can’t 0.0372733118024 0.024271030773 0.0426229826108 -7.36498055268e-05 0.00575398067606 -0.00697538700277 0.0264640365624 0.0176038366652 -0.0353740570738 -0.0489616224842
well 0.0508952936972 -0.0255481931096 -0.00246919146539 0.0306585804648 0.0488045354073 -0.0255295284562 -0.013936715294 -0.0212333057315 -0.048276357103 0.0274631445817
lifeuntil 0.0336749782731 0.00628206594794 0.00426366416528 -0.0180099040712 -0.00191769487377 0.00380602936721 0.0430940950932 0.0309705866115 0.0254148622034 0.02466579953
past 0.0146314166655 -0.0160404178428 -0.0405077574965 0.012790392168 -0.0165128013701 -0.0420002847438 -0.0477391610095 0.0067440624945 -0.0169578223866 -0.0422596555916
failures 0.0271491851768 -0.0498992422635 0.0265547826995 0.0411004138004 0.00357832787414 -0.0178608609862 -0.0252350873425 -0.0341100809901 -0.0127246322017 0.00284297505214
heartaches. 0.049129635463 -0.00597857458299 0.0077824403418 0.027115117519 0.0264887174028 -0.0435759158199 -0.0475563576395 0.00618851105178 0.0343964828529 0.0487586372017
　　When 0.000422800587979 -0.0238438197989 0.028452300757 0.0409170240335 -0.0424344807001 -0.00951511748151 -0.0300164870705 0.0240010667397 0.032976366973 -0.0105958528327
born,you 0.0122092814249 0.00639731705055 -0.017266344565 -0.00874241235686 -0.00171369554961 -0.0189815945507 -0.0332824213689 0.0389095679063 0.0410809877385 0.0487613670413
crying 0.0451803416672 -0.0132408905378 -0.0200317618612 -0.0207305029853 0.0384382721475 0.0232050559465 -0.0504732288042 -0.0368694458833 -0.00485312962183 -0.00336521977956
was 0.0380395803554 -0.0307567172652 -0.0143666405938 -0.027537282038 0.0423811609132 0.00812277225445 -0.0348990115034 0.00705496988789 0.0271908569315 0.0388673461504
smiling.Live -0.017246382032 0.0474493511034 -0.0412715673198 0.0426948620829 -0.0159134556822 -0.0119208728707 -0.0030704415287 0.0392006174582 -0.0304896167151 0.0266783041047
die,you're 0.00734907875689 -0.0154774219486 -0.00481751028723 0.0217595082936 -0.00578443342823 -0.00382695776439 0.0117241948735 -0.0311118231927 -0.0394373232417 0.0126226683658
smiling 0.0260777452365 0.0331023639554 0.0329190178925 0.00750658721786 -0.0207157357266 -0.0145295703691 -0.0445420018441 0.0124713405782 0.0347375450127 -0.0126624662835
crying. -0.0301035481378 -0.030508602783 -0.0231970438272 -0.0112450024327 0.0152935999432 -0.0437277526199 0.00673634781069 -0.031564945954 0.00416510683824 0.0176553092698
　　Please 0.0317436182598 0.00495584741257 0.0226064808032 0.02577544567 0.00412522954412 0.0475428823351 -0.0401295674539 -0.0344097395739 -0.0266681553238 0.0451918390506
send -0.0343443554424 0.00125281658693 -0.0158964709725 0.0351495909554 0.0139924410801 -0.0173459601979 -0.0323353129164 -0.00229965683673 0.0436181158286 0.0132302490175
message -0.0389374019347 -0.0146315698036 0.0140088974647 -0.0305636536197 0.0137722779412 -0.0435369622285 0.0302312406858 0.0318634695675 0.00227780515537 0.019007506321
mean 0.0473982772289 0.0481025890676 0.0220057230101 -0.0417847747216 -0.0236399903222 0.0228777233004 -0.0116035740808 0.00346656444275 -0.0197816520197 -0.00298412304275
something -0.00218724982857 0.0116760064599 0.0478147697151 0.0461045498842 -0.0207620428879 -0.0125225816837 -0.0293992809037 0.0159248038337 -0.0228987709945 -0.0380493427637
you,to -0.0164002127939 -0.00420236902308 -0.0199496856107 0.0121838138927 -0.0172745562655 -0.033586540825 -0.00994166466082 0.0147892010425 -0.0328779612353 -0.0378276661257
way 0.0152301983743 -0.0287081221295 -0.0354700412512 0.01621841887 -0.0129075974531 -0.0354473105865 -0.0456309711074 0.01298257423 0.0342330782475 0.0308293675748
or -0.0465941478706 -0.00885225369551 0.0192279681495 -0.00721500453374 0.0470303925424 0.0110897016643 -0.00518333314533 0.0272265935537 0.00606304786229 -0.0360672859786
another,to -0.0118426011085 0.0442803504674 -0.0411468971264 0.03131824934 -0.0382618957669 -0.0456116058761 0.0458540445652 0.046259027124 -0.025860578652 -0.0287056386889
smile -0.032267616724 -0.00667430661565 -0.0206257465179 0.0419954319799 -0.0359849305006 -0.0173639371495 -0.0239224057051 0.0446788890549 -0.00745592341416 -0.0178831149708
need 0.0329189261831 -0.02033711935 -0.0205654580513 -0.0497685995486 0.0244503008512 0.0112879503801 0.0255468781518 0.0269524474831 0.0107619301067 -0.0355714811182
it,to -0.0192382338648 -0.000671966772085 -0.00708320078825 0.0421203135195 -0.00443467195202 -0.0044081786087 0.0347984900881 0.0262616600395 -0.016550448645 0.0167644770699
see 0.0222928106063 -0.0231783806075 0.0200882964082 0.033208072446 0.0332750170062 0.0224738631963 -0.0192264703304 -0.0304041640691 0.00199601520259 -0.0153021312374
brighter 0.0246487343724 -0.0128872883466 -0.0414284447215 0.0315985002832 -0.0144804541296 0.0437255902212 -0.0293280258167 -0.0155171430681 -0.00935216830664 -0.0146493408324
side 0.00950735993895 0.0465844319181 0.0300915437832 -0.014474280918 -0.00373686229944 -0.0187495186534 0.0470480305223 0.0224945897228 0.0304209393524 -0.0434842485577
down,to -0.0226793248173 0.0433298441748 -0.0102031893355 -0.0434755666042 0.0223991745623 -0.0413289651993 0.0171597944408 0.0342228781231 -0.0282085053559 0.00740259462981
know 0.0371786513751 -0.0319125144011 -0.0203291801495 0.0117506619439 -0.0193307858031 -0.0414901069991 -0.0314207880878 -0.0175777927451 -0.0419020705637 -0.00933444282394
friendship.And 0.00464865743497 -0.0140893571298 0.014341415753 0.00890980109543 0.0145593577209 0.0231346873271 -0.0199911928742 0.0369409773438 -0.0114768840715 -0.0262836003136
if 0.029530071185 -0.0321350228171 -0.0216867819087 0.0296454484797 0.0322950301208 0.0289233384538 -0.0124748020685 -0.0474595247184 0.036645794482 0.0273497660434
don’t, 0.00575267473809 0.0161955568583 0.0175374599134 0.0308258797564 0.0467665333528 -0.0436202972241 0.0181131681863 0.0132312484643 0.0254094998201 0.0420097527363
worry,nothing 0.0452662606682 -0.0342472866872 -0.0314384183516 -0.0141489719942 0.0243251534445 0.00459161368586 0.04485759859 -0.00398877325327 -0.0335485193207 -0.0317095620823
bad 0.0153113164857 0.021948019995 -0.0443464485562 -0.00905023881384 0.0362651715271 -0.0063383936903 0.0467291244192 0.0260677839092 -0.037786565051 -0.003154704094
happen -0.0233453317698 0.0144291031523 0.00460025764943 0.0303748848642 -0.0295258448279 -0.0496257851405 -0.0353001961545 0.00430155379137 -0.047599498438 -0.019848295177
you,you -0.0385004717376 -0.0399074410411 -0.00817789320108 0.0401607839976 0.0475504329196 0.00905647766897 -0.0219053019293 0.0374848654432 -0.0330883421275 -0.00653166465533
opportunity -0.0467426637215 -0.0299565388472 0.0368755990152 0.022928371902 0.0164562780019 0.00740686453946 0.00467076161651 0.0372783330808 -0.0204806380214 -0.00808643165886
brighten 0.0345002739463 0.0361631770899 0.0126417714082 -0.0285265984712 -0.0438746028854 -0.0430278851686 -0.0225204808989 -0.00886664742952 0.0344075002345 0.0349487051226
someone’s -0.0365907681179 0.0228631954206 -0.0430088610428 -0.03875524094 -0.0362876932423 0.0393334459051 -0.0123076999568 0.0151581355811 0.0201503324754 0.0351962682343
day -0.0334598116197 0.0293272891853 0.00944991927156 -0.00576607175475 0.0185794343615 -0.0158314265595 0.0448383776065 -0.00989914290887 0.007277518434 -0.0482170950845
message. -0.0167029248954 -0.000339435207996 -0.0177412826787 0.0415995357095 0.0130770623526 -0.00941651387638 0.0274329973013 0.0119406265704 -0.0381477515572 -0.0171087313249
Hooray! 0.0240995481856 -0.00516404746633 -0.00735546211253 -0.0462529682448 -0.00403287089947 -0.024981044334 -0.00626185200434 -0.00503417838557 0.045423892757 -0.0249982943449
snowing! 0.0171757227917 0.0153716794649 0.0439732395333 0.0436754874058 0.027679599265 -0.00849647065143 -0.0311376988333 -0.0466194132574 0.049071203047 -0.0324237020272
time -0.0365490628289 0.0206979112798 -0.046966149412 -0.0163970291943 -0.0234208920919 -0.016433793857 0.00922708933801 0.0329606528678 -0.00651324701308 0.035255096514
snowman.James 0.0409327079514 0.0036450019151 0.0335661688668 0.0230116796798 -0.0347169700279 0.0315974299495 0.0377905116387 -0.0150796045058 0.00911765142094 -0.0387970794204
out. 0.0348204647856 0.00883667279204 0.0483212266288 0.04920730243 0.00959595315948 -0.0260918257071 0.0030622222612 -0.0286207245629 0.0404723354025 -0.0383724672156
makes 0.0439991532881 0.0147300658593 -0.0272845140652 -0.0121285574274 0.0414105135699 -0.0346909765018 0.00943479106622 0.042676810348 0.0188371526942 -0.0211034825798
pile -0.00382401941458 -0.019989909232 -0.0448356429754 -0.0315266910564 -0.0403383536464 -0.041079085128 -0.0169235333767 0.0184776838142 -0.00385478392526 -0.0480685549934
snow. 0.0385548878456 -0.0478993213062 -0.0499621352538 0.0424856251785 0.03906042998 0.00344405066583 0.0428031105243 -0.0202315594598 0.0249168427532 -0.000852843008117
puts 0.0509648970796 0.0122706408162 0.0198145226082 0.0420939802474 0.0261364201458 -0.0448105479263 0.0215427371648 0.0389331839313 0.0349637429124 0.00471374907477
snowball 0.0157743425009 -0.0115727061161 0.044178089934 0.0286930815546 -0.00192126125833 -0.0345150683411 -0.013871182737 0.0306178826459 -0.0108989523024 0.0325422152672
top. -0.00661490623116 0.0311190502044 0.0288672581832 -0.0101582512878 0.0136076636543 -0.0158418931083 -0.0212668613281 0.0304459449235 -0.0240389232092 -0.0422825336927
scarf -0.0465984293359 -0.0149997784294 0.0267361339698 0.0342975408295 -0.0295804282213 -0.0319007980221 0.0337365440033 0.0434982151567 0.035401143511 0.0394802520526
hat. -0.0300221742704 0.0250131544093 0.019607647596 -0.0303620938525 0.0316553051832 -0.0273652190388 0.0411571453592 0.00611083420506 0.0495739078623 0.025861014871
an 0.0458468764343 0.000117769744459 -0.0497920206876 0.0112276316014 -0.0112852501611 0.0218401323303 0.00130928270677 0.0128043788623 0.0442937484682 0.0189518619388
orange -0.0368088515877 -0.0336160344581 0.0253064502164 -0.0215545076348 -0.0130393594602 -0.0396418260255 -0.000228166247272 -0.0104421635599 0.0246299754288 -0.0399231286764
nose. -0.0411789256654 -0.00985363543417 0.0365131170159 -0.0265433340459 0.0177064144234 0.0147218397566 -0.00185282918652 -0.0403808451812 -0.0303020037778 -0.0465975080027
coal -0.0175458779879 -0.0219410748706 0.039016601901 -0.0434579186577 0.0502082985299 0.0444165436217 -0.0454970105351 -0.0284730307006 0.0149695562328 0.0348471800699
eyes -0.0305912360863 0.0322299060685 0.0502178466258 0.0307041958155 -0.0389349073956 -0.00938373388891 -0.0291382023608 0.00127248468454 -0.0441100488433 -0.00218247059586
buttons.In -0.0248075074667 0.0141664191233 -0.0392881826969 -0.00706537666535 0.00238069288425 -0.0213743881244 0.035487231503 -0.00576159591413 0.000918633831449 0.014813902996
evening, -0.0126548732928 -0.00781057608536 -0.0439399946994 0.0314084934537 -0.0259759183721 -0.0403528697547 -0.0275145363302 -0.0175434152232 -0.0183815908046 0.0246029638126
opens 0.0469411337727 0.0474440078641 0.0390100507321 -0.0356136898487 -0.045169558243 -0.00330239707713 -0.0220279373231 -0.00525301176477 -0.0354703345626 0.00461491141928
door. 0.0292899082822 0.00117224020843 0.0466616783809 -0.0131164483645 0.013068161356 -0.013419572474 -0.0308315935432 -0.0261549940471 0.0390309174068 0.0493069317347
does 0.0311482100855 0.0347395727336 0.00991349589341 -0.0362958831051 -0.00836484992054 0.0231779294452 -0.0423934153058 0.0427057043495 0.0277457862671 -0.0343611218198
he -0.00626178126912 -0.0298495777314 -0.0458836489597 0.0200619642665 0.0398471561678 0.0295778697709 0.00994088958334 0.0360712340877 0.0409741098596 0.0463812143383
see? -0.00772663011203 -0.0425411043195 -0.0315576732672 -0.0496906815107 0.0434223468229 -0.0122604179425 -0.0333460332688 -0.0348842992793 0.0281519511866 0.00490626223537
moving! 0.0149032573605 -0.0429898606448 0.0295167950237 0.0329293905448 -0.00752686883119 0.015678480441 0.0331603800918 -0.00911901697683 0.0493240975135 -0.0484704825291
invites 0.0246649798422 0.034796990742 0.0236717844686 0.0446452759885 0.0221370140284 -0.046112497441 -0.039443898295 -0.0161696678833 -0.0397503083056 -0.0423200663014
him -0.0455290352076 -0.0317557807753 0.041331114843 -0.0457155223336 -0.0216802573641 -0.0231828922064 -0.021603889929 0.0347709067947 -0.0502617009127 0.0435107557826
in. 0.00705038098543 -0.0223527462969 -0.0415171788855 -0.0053560373501 -0.024035806481 0.0329553817896 -0.0383161047576 -0.0214077224431 0.008984540548 0.0473956496968
has -0.0229893676052 0.00630876898897 0.0158897869159 0.0112800827815 0.0492646711858 -0.0202440330672 -0.0370609219722 -0.0420626617753 0.0271957251857 -0.0459596414308
never 0.0133651299767 0.0239890909397 -0.0188877620363 -0.0393257462006 0.0331074993021 -0.011452388201 0.0191497398391 0.00282259244717 -0.0382687992317 -0.0184455625815
been 0.0110306096591 -0.00226277501882 -0.0357524790807 0.0303651438691 0.0459847101198 0.0472485207062 -0.0207506185489 0.0250675016284 -0.0185677760512 -0.00712784341668
inside 0.0117767314625 -0.0250061303808 0.0278971830902 -0.0231536658821 0.0127284057788 0.0279325246113 -0.0165396337714 0.0426914199538 0.0380168456767 0.0412688900907
house. 0.0229334754122 0.018252984417 -0.0286873148301 -0.0323205473451 0.0151153623647 0.0161953175901 0.0481461232938 -0.0407547840309 -0.0166676348254 -0.0296199534762
says -0.0343371945043 -0.0404202150933 -0.0480808789364 0.0465400479131 -0.0138821708151 0.00597726149547 -0.0457588832161 0.0193685628346 -0.0396290928301 -0.0212392771794
hello 0.0271530295106 -0.0339990003883 0.0270006046679 0.0365990037792 -0.038136905616 -0.0472471093987 0.00864852889336 -0.00304656376515 -0.0492805283692 -0.029766592697
cat. -0.0373392750571 -0.020994104592 -0.0340459570333 0.00622191584199 -0.0152873877034 0.0313279403896 -0.0465079011011 0.0282194504212 -0.0380893010053 -0.0374972765149
plays 0.00176369487931 -0.0359358066186 -0.0189974140223 0.032439944882 -0.0175847542468 0.0361662899393 0.00948987550097 -0.0432912325256 -0.0474567508343 0.00645057541537
paper -0.0429687700232 0.0235627279563 0.0488825094646 -0.0500027251165 0.00352311862044 0.0371462606086 -0.030670468118 -0.0163300001357 0.0312276730276 0.0128248611412
towels.A 0.0203138707497 0.0133426349156 -0.0119773916513 0.00515972587992 0.0362311232292 -0.00629881650468 0.0271506215715 0.0170764531538 -0.000895457470084 0.0360043812894
moment 0.0370097161607 -0.0230417145765 -0.028683963681 0.0343892649575 -0.00222338896038 0.00311534817337 -0.0124508796377 0.00831691566574 0.0430244080738 -0.029701300636
later, -0.0208628036308 -0.0130601384036 -0.00513050996068 -0.0303906028289 0.0257886184463 -0.014266123787 0.0336944798534 0.0174970891973 0.0290343286421 -0.0433382762434
takes -0.0307381714943 -0.043464631707 -0.0159242368171 0.00376881131712 -0.0248641699441 0.0104744920531 -0.00448706250947 -0.0348070525397 -0.0365233551979 -0.00348783170217
James's 0.0175139253031 -0.0258600413074 0.0365108226224 -0.00838029770396 0.023125057443 -0.0418133773018 -0.00526352760136 -0.0365660009624 0.0356251751706 -0.0375641792415
hand -0.034001463167 -0.0406002437761 0.048142864516 -0.0285683412176 0.0188118932828 0.0114467858806 0.0254451580996 0.03569650926 -0.0284049612892 0.03085820924
goes 0.0432590644999 0.0436650477887 0.0444454637826 -0.0469324554972 -0.0139171996645 -0.0140313802285 0.0406722293154 0.0298945877449 -0.0329036533286 -0.0380150497078
out.They -0.0396433517177 0.00890938765997 -0.0327552200904 -0.04245753481 0.0325013684253 -0.0502491176366 -0.00230331372501 0.0214886522206 -0.0494765625707 -0.0440423626003
up 0.0172646050454 0.0373103332181 -0.0263849831113 0.043099816018 -0.0297075755884 0.0457489557279 0.0364455984835 0.0283740630338 0.0227244075237 0.0460786105181
into -0.00144403284629 -0.024251734689 -0.0099778023185 -0.0309896398382 0.0272904939255 0.013027468518 0.0084566424521 -0.00499171854935 0.0435331949993 -0.0150671613185
air! 0.0471448380835 -0.00838331398874 -0.0119662724691 -0.0133533473667 -0.0325439268371 -0.0347280188168 0.0232209906894 -0.0158158819711 0.0166542650815 0.0232931793068
They -0.0366843758904 -0.00172831625384 -0.0394533798282 -0.00279039066434 0.00283978826319 0.0308481388453 -0.0502197462604 0.0293969675741 -0.0188513712839 -0.0288556902912
flying! 0.00771267644175 -0.000749672739246 0.0243905369906 -0.0294211779329 -0.0202598489318 -0.0396476945731 0.00819112289828 0.0473621287417 -0.0224507462599 -0.0214416775576
wonderful -0.00483995612747 0.00870167423061 -0.0201771466264 0.0161813366125 -0.00299001698997 -0.0233863205818 0.00971730489609 -0.0345993783999 0.0181761212275 0.00569603673608
night!The 0.00108011832365 -0.0159495805768 0.0379880159767 -0.0405529395155 0.0131744162627 0.0473914488704 -0.0139007652668 0.00245436861207 -0.020803153536 -0.0124212550896
next -0.0156548790367 -0.0460274117516 0.0138686677334 -0.0448814463233 0.0320639438418 0.0146771220755 -0.00193805708863 -0.044442570853 -0.0285396416022 -0.0135593802016
morning, -0.00645210592847 0.0331367601492 -0.0271848280979 -0.0393843603491 0.0199113053434 -0.0296470495008 0.000186917458542 -0.00459287741253 -0.0220861840998 0.0187048411545
jumps -0.0227196123575 -0.0474877857523 -0.0347915711176 -0.0310687820805 0.0480266877292 -0.0457785445942 -0.0390712330911 0.0486255989889 0.0341593868475 0.0321711283192
bed. 0.0135449165264 0.0356249495635 0.0104453079361 -0.00835854283154 -0.0453112584819 -0.0186788467914 0.0427551653657 -0.00684834828401 -0.00829841948524 -0.0078437355044
door.He 0.0186851287129 -0.0200959912217 0.0262510574332 0.0426496003612 0.00305877962552 -0.0057627309943 0.0403326110975 -0.00195465589315 -0.0235079412761 0.0380067319156
wants -0.0181546184667 0.0413844939894 0.00657123620002 -0.0247714526077 -0.034699318671 0.00680994164054 -0.0272315085941 0.00876243924983 -0.00696465836773 0.0180439872933
thank -0.0321952741404 0.0246202497623 -0.014931433235 -0.00186420936881 0.0182419008284 -0.0496493721317 -0.0333129521707 0.00281861005633 -0.0453160205151 -0.0352569554838
snowman. 0.015293312754 -0.0196950946885 -0.0421882940674 -0.0240687406288 0.0526808639729 0.0107077381986 0.0323289812088 0.0425659279404 -0.007596849347 -0.011077830657
But -0.0339883525185 -0.00998177455098 -0.0161534391898 -0.0133974280529 -0.0189386011482 0.0423173872134 -0.0109255410943 -0.0216234438042 0.0278379655881 0.0421917082928
he's -0.0308135003996 0.0315137466065 0.017021848465 0.0165120036567 0.00308862546552 -0.0131354012995 0.00946460290371 0.0123113790195 -0.0135936144729 0.0298482048774
gone. -0.0360669033991 0.0373713987292 0.0142955773943 -0.00914086771564 0.0259137587894 -0.0412181627804 -0.0487583166359 -0.00424311179096 0.0223497017868 -0.01339098361
<unk> -0.0169892789881 -0.00188620690794 -0.011937085928 -0.0416110352153 -0.0230768576782 -0.0190550478846 -0.0492627179726 0.0190306185414 -0.043782555826 0.0249230677666
